
\data\
ngram 1=3181
ngram 2=13207
ngram 3=16603
ngram 4=15256

\1-grams:
-1.1103	</s>
-99	<s>	-0.960956
-4.15726	<unk>
-2.17885	a	-0.108268
-3.8614	abhor	-0.0863767
-4.01669	abide	-0.0863764
-4.01669	able	-0.0863764
-4.01669	about	-0.0863764
-3.57805	above	-0.0863766
-3.46861	absence	-0.0863764
-3.72471	absent	-0.134423
-3.57805	abundance	-0.0863765
-4.01669	abundant	-0.0863764
-3.72471	abuse	-0.134423
-4.01669	abused	-0.0863764
-4.01669	abuses	-0.0863764
-4.01669	abysm	-0.0863765
-4.01669	accents	-0.0863765
-4.01669	acceptable	-0.0863766
-4.01669	acceptance	-0.0863766
-4.01669	accessary	-0.0863765
-4.01669	accident	-0.0863764
-4.01669	accidents	-0.0863764
-3.57805	account	-0.121904
-4.01669	accumulate	-0.0863764
-3.8614	accuse	-0.0863765
-4.01669	accusing	-0.0863764
-4.01669	achieve	-0.0863764
-4.01669	acknowledge	-0.0863762
-3.72471	acquaintance	-0.0863765
-3.8614	acquainted	-0.160598
-4.01669	act	-0.0863766
-3.72471	action	-0.0863764
-4.01669	active	-0.0863764
-4.01669	actor	-0.0863767
-3.57805	add	-0.0863765
-3.8614	added	-0.0863765
-4.01669	adders	-0.0863766
-4.01669	addeth	-0.0863763
-4.01669	adding	-0.0863764
-3.8614	addition	-0.0863765
-4.01669	adieu	-0.0863764
-3.8614	adjunct	-0.0863767
-4.01669	admire	-0.0863764
-4.01669	admired	-0.0863765
-4.01669	admiring	-0.0863766
-4.01669	admit	-0.0863764
-4.01669	admitted	-0.0863762
-4.01669	adonis	-0.0863764
-4.01669	adore	-0.0863762
-4.01669	adoting	-0.0863764
-4.01669	adulterate	-0.0863766
-4.01669	advance	-0.0863764
-3.72471	advantage	-0.0863765
-4.01669	adverse	-0.0863764
-4.01669	advised	-0.0863764
-4.01669	advocate	-0.0863764
-4.01669	afar	-0.0863766
-4.01669	affable	-0.0863764
-3.8614	affairs	-0.0863764
-4.01669	affections	-0.0863765
-4.01669	afford	-0.0863764
-3.8614	affords	-0.160598
-4.01669	afloat	-0.0863764
-4.01669	afresh	-0.0863765
-3.19193	after	-0.100241
-4.01669	afterloss	-0.0863764
-4.01669	afterwards	-0.0863766
-3.3086	again	-0.171712
-3.24636	against	-0.290678
-2.95975	age	-0.240028
-3.72471	ages	-0.0863764
-4.01669	aggravate	-0.0863766
-3.72471	ah	-0.0863765
-3.8614	aid	-0.0863767
-3.72471	air	-0.121904
-3.72471	alack	-0.0863766
-4.01669	alas	-0.0863764
-3.8614	alchemy	-0.160598
-4.01669	alien	-0.0863764
-4.01669	alike	-0.0863767
-3.8614	alive	-0.0863767
-2.28518	all	-0.236171
-4.01669	allayed	-0.0863764
-4.01669	alleating	-0.0863764
-4.01669	allege	-0.0863767
-4.01669	alloblivious	-0.0863764
-3.8614	allow	-0.160598
-4.01669	alltyrant	-0.0863764
-3.72471	almost	-0.0863764
-4.01669	aloft	-0.0863763
-2.95975	alone	-0.385862
-4.01669	already	-0.0863765
-4.01669	alter	-0.0863765
-4.01669	alteration	-0.0863764
-3.8614	altered	-0.0863765
-3.8614	alters	-0.0863765
-3.46861	although	-0.0863764
-4.01669	altring	-0.0863763
-4.01669	always	-0.0863764
-3.06051	am	-0.106796
-4.01669	amazeth	-0.0863764
-4.01669	ambush	-0.0863765
-4.01669	amen	-0.0863764
-4.01669	amends	-0.0863764
-4.01669	amis	-0.0863764
-3.8614	amiss	-0.160598
-3.72471	among	-0.0863764
-2.95975	an	-0.102734
-4.01669	anchored	-0.0863762
-1.81013	and	-0.17241
-3.72471	anew	-0.134423
-3.57805	angel	-0.0863764
-4.01669	anger	-0.0863764
-4.01669	angry	-0.0863766
-4.01669	annexed	-0.0863766
-4.01669	annoy	-0.0863764
-3.8614	anon	-0.0863767
-3.19193	another	-0.101809
-3.72471	anothers	-0.0863764
-3.72471	answer	-0.0863765
-4.01669	answered	-0.0863767
-4.01669	answers	-0.0863765
-4.01669	anticipate	-0.0863764
-3.46861	antique	-0.114562
-3.8614	antiquity	-0.0863767
-3.19193	any	-0.0863764
-4.01669	apparel	-0.0863767
-4.01669	appeal	-0.0863765
-3.57805	appear	-0.503668
-4.01669	appearance	-0.0863763
-4.01669	appears	-0.0863765
-3.57805	appetite	-0.0863766
-4.01669	apple	-0.0863765
-4.01669	applying	-0.0863765
-3.72471	approve	-0.134423
-3.72471	april	-0.0863764
-4.01669	aprils	-0.0863764
-2.36122	are	-0.171599
-3.46861	argument	-0.237538
-4.01669	aright	-0.0863764
-4.01669	arise	-0.0863764
-4.01669	arising	-0.0863764
-4.01669	array	-0.0863764
-4.01669	arrest	-0.0863764
-2.85388	art	-0.160245
-3.8614	arts	-0.0863764
-2.33913	as	-0.213101
-4.01669	ashes	-0.0863765
-3.8614	aside	-0.160598
-4.01669	askance	-0.0863764
-4.01669	asked	-0.0863763
-3.8614	asleep	-0.160598
-4.01669	aspect	-0.0863764
-3.8614	assailed	-0.0863767
-4.01669	assemble	-0.0863764
-4.01669	assistance	-0.0863762
-4.01669	assure	-0.0863764
-3.57805	assured	-0.285269
-4.01669	astonished	-0.0863764
-4.01669	astronomy	-0.0863764
-2.80927	at	-0.197766
-4.01669	attaint	-0.0863764
-4.01669	attainted	-0.0863764
-4.01669	attend	-0.0863766
-3.8614	attending	-0.0863765
-3.72471	audit	-0.0863765
-3.8614	aught	-0.0863768
-4.01669	augurs	-0.0863766
-4.01669	authority	-0.0863764
-4.01669	authorizing	-0.0863766
-3.8614	autumn	-0.0863765
-4.01669	awake	-0.0863764
-4.01669	awakes	-0.0863767
-4.01669	awards	-0.0863764
-2.9036	away	-0.483348
-4.01669	ay	-0.0863765
-4.01669	aye	-0.0863762
-3.72471	babe	-0.0863764
-3.24636	back	-0.247102
-4.01669	backward	-0.0863764
-3.46861	bad	-0.0863765
-4.01669	badges	-0.0863765
-4.01669	badness	-0.0863764
-3.8614	bail	-0.0863767
-4.01669	bait	-0.0863764
-4.01669	balmy	-0.0863766
-4.01669	bankrupt	-0.0863767
-4.01669	banks	-0.0863766
-4.01669	banquet	-0.0863764
-4.01669	bar	-0.0863764
-3.57805	bare	-0.0863764
-3.8614	bareness	-0.0863764
-3.8614	bark	-0.0863767
-3.46861	barren	-0.114562
-4.01669	barrenly	-0.0863764
-3.8614	bars	-0.0863769
-3.46861	base	-0.0863764
-4.01669	bases	-0.0863764
-4.01669	basest	-0.0863764
-3.72471	bastard	-0.0863765
-3.57805	bath	-0.0863765
-4.01669	battring	-0.0863767
-4.01669	bay	-0.0863763
-2.27268	be	-0.185835
-4.01669	beams	-0.0863764
-3.14356	bear	-0.234595
-4.01669	beard	-0.0863764
-4.01669	bearer	-0.0863764
-3.8614	bearing	-0.0863766
-3.8614	bears	-0.0863764
-4.01669	bearst	-0.0863766
-3.8614	beast	-0.0863764
-4.01669	beated	-0.0863764
-3.19193	beauteous	-0.101809
-3.57805	beauties	-0.0863765
-4.01669	beautiful	-0.0863766
-2.68164	beauty	-0.114199
-2.95975	beautys	-0.0863764
-3.8614	because	-0.0863765
-4.01669	beck	-0.0863764
-4.01669	become	-0.0863766
-3.8614	becomes	-0.0863765
-3.8614	becoming	-0.160599
-4.01669	bed	-0.0863764
-4.01669	beds	-0.0863764
-4.01669	bedvow	-0.0863764
-3.38128	been	-0.0863765
-4.01669	befits	-0.0863764
-3.02426	before	-0.186852
-4.01669	befriends	-0.0863764
-4.01669	beggar	-0.0863765
-4.01669	beggared	-0.0863765
-4.01669	begin	-0.0863764
-4.01669	begins	-0.0863765
-4.01669	beguile	-0.0863762
-4.01669	beguiled	-0.0863764
-4.01669	behaviour	-0.0863763
-3.57805	behind	-0.285269
-3.38128	behold	-0.188728
-2.71444	being	-0.117864
-3.8614	belied	-0.0863767
-3.57805	believe	-0.0863764
-4.01669	believed	-0.0863765
-4.01669	bell	-0.0863764
-3.8614	belong	-0.160598
-3.8614	belongs	-0.0863769
-3.46861	beloved	-0.114562
-3.8614	bending	-0.0863765
-4.01669	bends	-0.0863765
-3.8614	benefit	-0.160599
-4.01669	bent	-0.0863767
-4.01669	bequest	-0.0863764
-4.01669	bereft	-0.0863764
-4.01669	beseechers	-0.0863766
-4.01669	beseem	-0.0863766
-4.01669	beshrew	-0.0863766
-3.8614	beside	-0.0863767
-4.01669	besides	-0.0863766
-3.8614	besiege	-0.0863765
-4.01669	besmeared	-0.0863765
-2.9036	best	-0.204879
-4.01669	bestow	-0.0863764
-4.01669	bestowst	-0.0863764
-3.8614	betray	-0.160598
-4.01669	betraying	-0.0863764
-2.93077	better	-0.0940242
-4.01669	bettered	-0.0863766
-4.01669	bettring	-0.0863765
-4.01669	betwixt	-0.0863765
-4.01669	bevel	-0.0863764
-4.01669	bewailed	-0.0863764
-4.01669	beweep	-0.0863767
-4.01669	beyond	-0.0863766
-4.01669	bid	-0.0863765
-3.8614	bide	-0.0863767
-4.01669	bids	-0.0863767
-4.01669	bier	-0.0863765
-4.01669	big	-0.0863765
-4.01669	bind	-0.0863764
-4.01669	bird	-0.0863765
-3.72471	birds	-0.0863764
-3.57805	birth	-0.0863765
-3.8614	bitter	-0.0863764
-3.8614	bitterness	-0.0863762
-3.06051	black	-0.107894
-3.57805	blame	-0.0863766
-3.8614	blamed	-0.0863765
-4.01669	blanks	-0.0863764
-4.01669	blazon	-0.0863765
-4.01669	blenches	-0.0863765
-3.3086	blessed	-0.0863765
-4.01669	blessedfair	-0.0863766
-4.01669	blesses	-0.0863762
-4.01669	blessing	-0.0863765
-4.01669	blessings	-0.0863766
-4.01669	blest	-0.0863764
-3.38128	blind	-0.208403
-4.01669	blindness	-0.0863764
-4.01669	bliss	-0.0863762
-3.3086	blood	-0.174535
-3.72471	bloody	-0.0863764
-4.01669	blooms	-0.0863765
-3.72471	blot	-0.134423
-4.01669	blots	-0.0863766
-4.01669	blow	-0.0863765
-3.72471	blunt	-0.0863765
-4.01669	blunter	-0.0863765
-4.01669	blunting	-0.0863762
-4.01669	blush	-0.0863765
-3.8614	blushing	-0.0863765
-3.46861	boast	-0.237538
-4.01669	boat	-0.0863764
-4.01669	body	-0.0863764
-3.57805	bodys	-0.0863765
-3.8614	bold	-0.160598
-4.01669	boldness	-0.0863766
-4.01669	bond	-0.0863766
-3.72471	bonds	-0.0863765
-4.01669	bones	-0.0863765
-3.38128	book	-0.208403
-4.01669	boot	-0.0863764
-4.01669	bootless	-0.0863764
-3.8614	bore	-0.0863765
-3.38128	born	-0.127225
-3.8614	borne	-0.0863765
-3.8614	borrowed	-0.0863765
-3.8614	bosom	-0.0863764
-3.72471	bosoms	-0.0863764
-2.95975	both	-0.0863765
-4.01669	bough	-0.0863764
-4.01669	boughs	-0.0863764
-3.8614	bound	-0.0863767
-4.01669	boundless	-0.0863766
-3.8614	bounteous	-0.0863764
-3.8614	bounty	-0.0863765
-3.8614	bow	-0.160598
-4.01669	bower	-0.0863764
-3.72471	boy	-0.0863764
-4.01669	brag	-0.0863764
-3.57805	brain	-0.114562
-4.01669	brains	-0.0863764
-3.46861	brand	-0.114562
-3.57805	brass	-0.0863765
-3.72471	brave	-0.0863764
-4.01669	bravry	-0.0863762
-4.01669	breach	-0.0863765
-3.57805	break	-0.0863766
-3.57805	breast	-0.237538
-4.01669	breasts	-0.0863764
-3.38128	breath	-0.0863764
-3.8614	breathe	-0.0863764
-4.01669	breathed	-0.0863765
-4.01669	breathers	-0.0863765
-4.01669	breathes	-0.0863763
-3.8614	bred	-0.160598
-3.8614	breed	-0.0863767
-4.01669	breeds	-0.0863764
-3.72471	brief	-0.0863765
-3.14356	bright	-0.269468
-4.01669	brightness	-0.0863765
-3.38128	bring	-0.103777
-3.8614	brings	-0.0863767
-4.01669	bristly	-0.0863764
-4.01669	broad	-0.0863766
-4.01669	broils	-0.0863764
-3.8614	broke	-0.0863762
-4.01669	broken	-0.0863764
-4.01669	brood	-0.0863764
-3.72471	brought	-0.134423
-3.3086	brow	-0.746707
-3.8614	bud	-0.0863767
-4.01669	budding	-0.0863764
-3.57805	buds	-0.121904
-4.01669	builded	-0.0863763
-4.01669	building	-0.0863764
-3.8614	built	-0.0863765
-4.01669	burden	-0.0863765
-3.46861	buried	-0.114562
-4.01669	buriest	-0.0863766
-3.72471	burn	-0.0863766
-4.01669	burned	-0.0863764
-4.01669	burning	-0.0863766
-3.8614	burthen	-0.160599
-4.01669	burthens	-0.0863765
-4.01669	busy	-0.0863765
-2.30463	but	-0.152723
-4.01669	buy	-0.0863764
-2.29805	by	-0.197505
-3.19193	call	-0.163809
-3.8614	called	-0.0863767
-3.46861	calls	-0.0863765
-3.8614	came	-0.0863764
-2.65114	can	-0.113391
-4.01669	cancelled	-0.0863763
-4.01669	candles	-0.0863764
-3.46861	canker	-0.0863764
-3.19193	cannot	-0.0863765
-3.8614	canopy	-0.0863768
-3.46861	canst	-0.144704
-3.8614	captain	-0.0863765
-4.01669	captive	-0.0863763
-4.01669	car	-0.0863764
-4.01669	carcanet	-0.0863764
-3.38128	care	-0.31672
-3.8614	careful	-0.0863764
-4.01669	carry	-0.0863764
-4.01669	cars	-0.0863765
-4.01669	carve	-0.0863765
-4.01669	carved	-0.0863762
-3.72471	case	-0.0863767
-3.8614	cast	-0.0863764
-3.72471	catch	-0.121904
-3.72471	cause	-0.134423
-4.01669	cease	-0.0863764
-4.01669	celestial	-0.0863762
-4.01669	censures	-0.0863764
-4.01669	centre	-0.0863765
-4.01669	ceremony	-0.0863765
-4.01669	certain	-0.0863765
-4.01669	chance	-0.0863765
-3.10005	change	-0.201011
-4.01669	changes	-0.0863764
-3.8614	changing	-0.0863765
-3.72471	character	-0.0863767
-4.01669	charactered	-0.0863765
-4.01669	charge	-0.0863767
-4.01669	charged	-0.0863764
-3.8614	charter	-0.0863763
-4.01669	chary	-0.0863764
-3.8614	chase	-0.0863767
-4.01669	chaste	-0.0863762
-4.01669	cheap	-0.0863763
-4.01669	cheater	-0.0863764
-3.72471	check	-0.0863766
-3.8614	checked	-0.0863764
-3.72471	cheek	-0.0863766
-3.57805	cheeks	-0.121904
-4.01669	cheer	-0.0863764
-4.01669	cheered	-0.0863764
-4.01669	cherish	-0.0863764
-4.01669	cherubins	-0.0863763
-3.72471	chest	-0.134423
-3.57805	chide	-0.114562
-4.01669	chiding	-0.0863766
-3.8614	chief	-0.0863767
-3.24636	child	-0.174535
-4.01669	children	-0.0863764
-4.01669	childrens	-0.0863766
-4.01669	chips	-0.0863764
-4.01669	choirs	-0.0863763
-4.01669	choose	-0.0863764
-4.01669	chopt	-0.0863765
-4.01669	chose	-0.0863767
-4.01669	chronicle	-0.0863765
-3.8614	churl	-0.0863764
-4.01669	churls	-0.0863766
-4.01669	civil	-0.0863765
-4.01669	clay	-0.0863764
-4.01669	clean	-0.0863764
-3.8614	clear	-0.0863766
-3.8614	clearer	-0.0863767
-4.01669	clears	-0.0863764
-4.01669	clerk	-0.0863766
-4.01669	climbed	-0.0863762
-4.01669	cloak	-0.0863764
-4.01669	clock	-0.0863764
-4.01669	closet	-0.0863763
-4.01669	closure	-0.0863765
-3.8614	cloud	-0.0863765
-3.57805	clouds	-0.0863764
-3.3086	cold	-0.27535
-3.72471	colour	-0.0863764
-4.01669	coloured	-0.0863766
-3.06051	come	-0.195003
-3.8614	comes	-0.0863764
-3.72471	comfort	-0.0863764
-3.8614	coming	-0.0863766
-4.01669	commanded	-0.0863766
-4.01669	commence	-0.0863764
-4.01669	commend	-0.0863764
-3.8614	comment	-0.0863767
-3.8614	comments	-0.0863763
-4.01669	commit	-0.0863763
-3.8614	commits	-0.160598
-4.01669	committed	-0.0863764
-3.57805	common	-0.0863765
-3.38128	compare	-0.208404
-4.01669	compared	-0.0863765
-4.01669	compass	-0.0863763
-4.01669	compeers	-0.0863766
-4.01669	compile	-0.0863764
-4.01669	compiled	-0.0863764
-4.01669	complain	-0.0863764
-3.72471	complexion	-0.0863764
-4.01669	composed	-0.0863766
-4.01669	composition	-0.0863765
-4.01669	compound	-0.0863763
-4.01669	compounded	-0.0863763
-3.8614	compounds	-0.0863765
-4.01669	concealed	-0.0863766
-3.72471	conceit	-0.378729
-3.8614	concord	-0.0863762
-4.01669	condemned	-0.0863764
-4.01669	confess	-0.0863766
-4.01669	confessed	-0.0863766
-4.01669	confine	-0.0863764
-3.72471	confined	-0.134423
-3.8614	confound	-0.160598
-4.01669	confounded	-0.0863763
-4.01669	confounding	-0.0863766
-3.72471	confounds	-0.134423
-4.01669	conquered	-0.0863763
-3.72471	conquest	-0.134423
-3.72471	conscience	-0.134423
-4.01669	consecrate	-0.0863763
-4.01669	consent	-0.0863766
-4.01669	consider	-0.0863765
-4.01669	conspire	-0.0863764
-3.72471	constancy	-0.0863766
-3.72471	constant	-0.0863765
-4.01669	consumed	-0.0863765
-4.01669	consumst	-0.0863766
-4.01669	contain	-0.0863764
-4.01669	contains	-0.0863764
-4.01669	contend	-0.0863764
-3.8614	content	-0.160598
-3.72471	contented	-0.0863764
-4.01669	contents	-0.0863764
-4.01669	continual	-0.0863764
-3.8614	contracted	-0.0863767
-4.01669	contrary	-0.0863765
-3.72471	control	-0.134423
-3.8614	controlling	-0.0863767
-4.01669	convert	-0.0863764
-3.8614	converted	-0.0863765
-4.01669	convertest	-0.0863764
-4.01669	cool	-0.0863765
-4.01669	cools	-0.0863765
-3.8614	copy	-0.0863765
-4.01669	coral	-0.0863767
-4.01669	correct	-0.0863764
-4.01669	correction	-0.0863764
-4.01669	correspondence	-0.0863765
-3.8614	corrupt	-0.0863764
-4.01669	corrupting	-0.0863764
-3.8614	cost	-0.0863762
-4.01669	costly	-0.0863764
-4.01669	costs	-0.0863764
-3.19193	could	-0.100241
-4.01669	couldst	-0.0863766
-3.57805	count	-0.0863764
-4.01669	counted	-0.0863763
-4.01669	countenance	-0.0863766
-3.8614	counterfeit	-0.160598
-4.01669	counterpart	-0.0863765
-3.8614	counting	-0.0863765
-4.01669	couplement	-0.0863765
-3.72471	course	-0.0863764
-4.01669	courses	-0.0863765
-3.8614	cover	-0.0863767
-4.01669	covetous	-0.0863764
-4.01669	coward	-0.0863766
-4.01669	crave	-0.0863764
-4.01669	crawls	-0.0863763
-3.8614	created	-0.0863767
-4.01669	creating	-0.0863765
-3.8614	creation	-0.0863764
-4.01669	creature	-0.0863764
-3.8614	creatures	-0.0863765
-4.01669	credit	-0.0863766
-4.01669	creep	-0.0863762
-4.01669	crests	-0.0863764
-3.8614	cries	-0.0863769
-3.57805	crime	-0.503668
-4.01669	critic	-0.0863764
-3.8614	crooked	-0.0863765
-3.72471	cross	-0.378729
-4.01669	crossed	-0.0863764
-3.8614	crow	-0.0863764
-4.01669	crown	-0.0863765
-3.72471	crowned	-0.121904
-4.01669	crowning	-0.0863762
-3.24636	cruel	-0.103777
-4.01669	crushed	-0.0863764
-3.8614	cry	-0.0863767
-4.01669	crying	-0.0863766
-4.01669	crystal	-0.0863766
-3.72471	cunning	-0.0863764
-4.01669	cup	-0.0863764
-3.8614	cupid	-0.0863765
-3.46861	cure	-0.0863765
-4.01669	cured	-0.0863764
-4.01669	cures	-0.0863765
-4.01669	curious	-0.0863767
-4.01669	curls	-0.0863766
-3.8614	curse	-0.0863767
-4.01669	cut	-0.0863763
-3.72471	daily	-0.0863765
-4.01669	damasked	-0.0863766
-4.01669	dancing	-0.0863764
-3.8614	dare	-0.0863765
-3.72471	dark	-0.0863764
-4.01669	darkening	-0.0863766
-4.01669	darkly	-0.0863764
-4.01669	darkness	-0.0863764
-4.01669	darling	-0.0863766
-4.01669	dart	-0.0863766
-3.46861	date	-0.38218
-3.8614	dateless	-0.0863765
-4.01669	dates	-0.0863764
-2.9036	day	-0.300103
-2.93077	days	-0.35228
-2.99081	dead	-0.331505
-4.01669	deaf	-0.0863763
-2.93077	dear	-0.18881
-3.8614	dearer	-0.0863767
-3.72471	dearest	-0.0863765
-4.01669	dearly	-0.0863764
-4.01669	dearpurchased	-0.0863764
-4.01669	dearth	-0.0863764
-4.01669	dearths	-0.0863765
-3.02426	death	-0.104962
-4.01669	deathbed	-0.0863766
-3.38128	deaths	-0.0863765
-4.01669	debarred	-0.0863762
-4.01669	debate	-0.0863764
-4.01669	debateth	-0.0863765
-4.01669	debt	-0.0863764
-4.01669	debtor	-0.0863764
-3.38128	decay	-0.67976
-4.01669	decayed	-0.0863764
-4.01669	decays	-0.0863764
-3.72471	decease	-0.378729
-3.8614	deceased	-0.0863764
-3.8614	deceive	-0.160598
-3.8614	deceived	-0.0863767
-4.01669	deceivest	-0.0863764
-4.01669	decembers	-0.0863764
-4.01669	declines	-0.0863764
-4.01669	decrease	-0.0863764
-4.01669	decree	-0.0863764
-4.01669	decrees	-0.0863765
-4.01669	decrepit	-0.0863764
-4.01669	dedicated	-0.0863764
-3.38128	deeds	-0.27535
-4.01669	deem	-0.0863764
-3.8614	deemed	-0.160598
-3.24636	deep	-0.0863765
-4.01669	deepest	-0.0863766
-4.01669	deface	-0.0863764
-4.01669	defaced	-0.0863764
-4.01669	defeat	-0.0863764
-4.01669	defeated	-0.0863764
-4.01669	defect	-0.0863764
-4.01669	defects	-0.0863764
-3.72471	defence	-0.134423
-4.01669	defendant	-0.0863765
-4.01669	define	-0.0863764
-4.01669	deformedst	-0.0863764
-4.01669	defy	-0.0863764
-4.01669	delayed	-0.0863764
-3.3086	delight	-0.5863
-4.01669	delighted	-0.0863764
-3.8614	delights	-0.0863768
-4.01669	delivered	-0.0863763
-4.01669	delivers	-0.0863763
-4.01669	delves	-0.0863762
-4.01669	denied	-0.0863764
-4.01669	denote	-0.0863764
-3.8614	deny	-0.0863767
-3.8614	depart	-0.160598
-4.01669	departest	-0.0863764
-4.01669	depend	-0.0863764
-3.8614	depends	-0.0863767
-4.01669	derive	-0.0863764
-4.01669	describe	-0.0863764
-4.01669	descriptions	-0.0863765
-3.8614	desert	-0.0863767
-3.8614	deserts	-0.0863767
-4.01669	deserve	-0.0863763
-4.01669	deserved	-0.0863766
-4.01669	deserves	-0.0863762
-4.01669	deserving	-0.0863764
-4.01669	deservst	-0.0863762
-3.14356	desire	-0.250958
-3.8614	desired	-0.0863767
-4.01669	desiring	-0.0863766
-3.72471	despair	-0.134423
-4.01669	desperate	-0.0863767
-3.8614	despise	-0.160598
-3.72471	despised	-0.0863766
-4.01669	despising	-0.0863764
-3.38128	despite	-0.239619
-4.01669	destroys	-0.0863764
-4.01669	detain	-0.0863767
-4.01669	determinate	-0.0863764
-4.01669	determination	-0.0863763
-4.01669	determined	-0.0863764
-4.01669	devil	-0.0863764
-3.8614	devise	-0.0863767
-4.01669	devised	-0.0863764
-4.01669	devour	-0.0863766
-4.01669	devouring	-0.0863766
-3.8614	dial	-0.0863764
-4.01669	dials	-0.0863764
-4.01669	dians	-0.0863766
-2.76883	did	-0.117246
-3.72471	didst	-0.134423
-3.24636	die	-0.312838
-3.8614	died	-0.0863762
-4.01669	dies	-0.0863765
-4.01669	diest	-0.0863766
-4.01669	difference	-0.0863764
-4.01669	different	-0.0863764
-4.01669	dig	-0.0863764
-4.01669	dignified	-0.0863764
-4.01669	dignifies	-0.0863762
-4.01669	dignity	-0.0863764
-4.01669	dimmed	-0.0863764
-4.01669	directed	-0.0863764
-4.01669	directly	-0.0863763
-4.01669	disabled	-0.0863764
-4.01669	disarmed	-0.0863764
-4.01669	discased	-0.0863767
-4.01669	discloses	-0.0863764
-3.8614	discontent	-0.160598
-4.01669	discourse	-0.0863763
-3.8614	disdain	-0.160598
-4.01669	disdaineth	-0.0863764
-4.01669	disdains	-0.0863762
-4.01669	disease	-0.0863764
-4.01669	diseased	-0.0863765
-3.3086	disgrace	-0.246721
-4.01669	disgraced	-0.0863764
-4.01669	dispatch	-0.0863764
-4.01669	dispense	-0.0863764
-4.01669	disperse	-0.0863764
-4.01669	disposed	-0.0863763
-4.01669	dispraise	-0.0863767
-4.01669	dissuade	-0.0863764
-4.01669	distance	-0.0863763
-4.01669	distempered	-0.0863764
-4.01669	distillation	-0.0863765
-3.72471	distilled	-0.0863766
-4.01669	distills	-0.0863765
-4.01669	distraction	-0.0863765
-4.01669	divert	-0.0863765
-4.01669	divide	-0.0863762
-4.01669	divided	-0.0863765
-3.8614	divine	-0.0863768
-4.01669	divining	-0.0863766
-2.38449	do	-0.228416
-4.01669	doctorlike	-0.0863764
-3.8614	doing	-0.0863765
-3.57805	done	-0.237538
-3.46861	doom	-0.38218
-3.14356	dost	-0.171922
-3.8614	dote	-0.160598
-2.27889	doth	-0.119451
-4.01669	doting	-0.0863767
-3.8614	double	-0.0863765
-4.01669	doublevantage	-0.0863764
-4.01669	doubt	-0.0863764
-3.8614	doubting	-0.0863763
-4.01669	dove	-0.0863764
-3.57805	down	-0.0863766
-4.01669	downrased	-0.0863764
-4.01669	drained	-0.0863762
-3.72471	draw	-0.0863765
-3.72471	drawn	-0.0863764
-4.01669	dreading	-0.0863762
-4.01669	dream	-0.0863767
-4.01669	dreaming	-0.0863767
-3.8614	dreams	-0.0863765
-4.01669	dregs	-0.0863765
-4.01669	dress	-0.0863762
-4.01669	dressed	-0.0863762
-4.01669	dressing	-0.0863766
-4.01669	dressings	-0.0863765
-3.8614	drink	-0.0863767
-4.01669	drinks	-0.0863764
-4.01669	drooping	-0.0863764
-4.01669	drop	-0.0863762
-4.01669	drops	-0.0863765
-4.01669	dross	-0.0863764
-4.01669	drown	-0.0863762
-4.01669	drowns	-0.0863765
-4.01669	drudge	-0.0863763
-4.01669	drugs	-0.0863764
-4.01669	drunk	-0.0863765
-4.01669	dry	-0.0863762
-3.57805	due	-0.109736
-3.38128	dull	-0.0863765
-4.01669	dulling	-0.0863767
-4.01669	dully	-0.0863767
-4.01669	dulness	-0.0863764
-3.38128	dumb	-0.109735
-4.01669	dun	-0.0863764
-4.01669	durst	-0.0863764
-3.8614	dust	-0.0863762
-4.01669	duteous	-0.0863767
-3.72471	duty	-0.0863764
-3.46861	dwell	-0.38218
-4.01669	dwellers	-0.0863767
-4.01669	dwells	-0.0863764
-4.01669	dye	-0.0863764
-3.8614	dyed	-0.160598
-4.01669	dyers	-0.0863767
-4.01669	dying	-0.0863763
-3.06051	each	-0.0863765
-4.01669	eager	-0.0863764
-3.72471	ear	-0.0863766
-4.01669	early	-0.0863764
-4.01669	ears	-0.0863764
-3.19193	earth	-0.0989619
-4.01669	earthly	-0.0863764
-4.01669	eased	-0.0863766
-4.01669	east	-0.0863764
-4.01669	easy	-0.0863765
-3.72471	eat	-0.0863765
-4.01669	eclipse	-0.0863764
-3.8614	eclipses	-0.0863764
-3.72471	edge	-0.0863767
-3.72471	effect	-0.134423
-4.01669	effectually	-0.0863767
-4.01669	eisel	-0.0863765
-3.8614	either	-0.0863765
-3.8614	eithers	-0.0863765
-4.01669	elder	-0.0863763
-3.8614	elements	-0.0863765
-4.01669	eloquence	-0.0863764
-3.72471	else	-0.0863765
-3.72471	elsewhere	-0.0863767
-4.01669	embassage	-0.0863764
-4.01669	embassy	-0.0863765
-4.01669	enclose	-0.0863764
-3.19193	end	-0.492811
-4.01669	endeared	-0.0863765
-4.01669	ending	-0.0863765
-4.01669	endless	-0.0863762
-4.01669	endowed	-0.0863764
-4.01669	endure	-0.0863764
-4.01669	endured	-0.0863764
-3.8614	enemies	-0.0863769
-4.01669	enfeebled	-0.0863765
-4.01669	enforced	-0.0863763
-4.01669	engraft	-0.0863764
-4.01669	engrafted	-0.0863763
-4.01669	engrossed	-0.0863764
-4.01669	enjoy	-0.0863766
-4.01669	enjoyed	-0.0863767
-4.01669	enjoyer	-0.0863764
-4.01669	enjoys	-0.0863764
-4.01669	enlarged	-0.0863764
-4.01669	enlighten	-0.0863762
-4.01669	enmity	-0.0863764
-3.46861	enough	-0.109736
-4.01669	enrich	-0.0863766
-4.01669	ensconce	-0.0863764
-4.01669	entertain	-0.0863762
-4.01669	entitled	-0.0863762
-4.01669	entombed	-0.0863762
-3.8614	envy	-0.0863764
-4.01669	epitaph	-0.0863763
-4.01669	equal	-0.0863766
-4.01669	equipage	-0.0863764
-3.46861	ere	-0.0863764
-4.01669	err	-0.0863765
-4.01669	erred	-0.0863764
-4.01669	error	-0.0863764
-3.57805	errors	-0.0863765
-4.01669	erst	-0.0863763
-4.01669	essays	-0.0863766
-3.8614	esteem	-0.160598
-3.8614	esteemed	-0.160598
-4.01669	esteeming	-0.0863764
-4.01669	estimate	-0.0863764
-3.38128	eternal	-0.0863764
-3.8614	eternity	-0.160598
-3.02426	even	-0.155883
-3.14356	ever	-0.0863764
-4.01669	everfixed	-0.0863766
-3.72471	evermore	-0.0863764
-2.76883	every	-0.130869
-3.8614	everywhere	-0.160598
-4.01669	eves	-0.0863764
-4.01669	evident	-0.0863764
-3.57805	evil	-0.0863766
-4.01669	example	-0.0863763
-4.01669	exceed	-0.0863764
-4.01669	exceeded	-0.0863766
-4.01669	exceeds	-0.0863764
-4.01669	excel	-0.0863764
-3.8614	excellence	-0.160598
-4.01669	excellent	-0.0863764
-4.01669	except	-0.0863764
-4.01669	excess	-0.0863764
-4.01669	exchanged	-0.0863764
-4.01669	exchequer	-0.0863767
-3.3086	excuse	-0.0863764
-4.01669	excusing	-0.0863766
-4.01669	executor	-0.0863763
-3.8614	expense	-0.0863765
-4.01669	expiate	-0.0863764
-4.01669	expire	-0.0863764
-4.01669	expired	-0.0863764
-3.8614	express	-0.0863767
-3.72471	expressed	-0.378729
-4.01669	expressing	-0.0863764
-4.01669	extant	-0.0863765
-4.01669	extern	-0.0863762
-4.01669	external	-0.0863763
-3.8614	extreme	-0.0863767
-4.01669	extremity	-0.0863762
-2.93077	eye	-0.222703
-4.01669	eyed	-0.0863764
-3.8614	eyelids	-0.0863767
-2.55864	eyes	-0.207314
-2.95975	face	-0.254986
-3.8614	faces	-0.160598
-4.01669	faculty	-0.0863766
-3.8614	fade	-0.160598
-4.01669	fadeth	-0.0863762
-3.8614	fading	-0.0863765
-4.01669	faint	-0.0863764
-2.66612	fair	-0.140259
-3.72471	fairer	-0.0863765
-3.72471	fairest	-0.0863765
-4.01669	fairing	-0.0863762
-4.01669	fairly	-0.0863765
-3.46861	faith	-0.0863765
-3.72471	fall	-0.0863767
-4.01669	falls	-0.0863764
-2.87803	false	-0.0940243
-3.8614	falsehood	-0.0863765
-4.01669	falsely	-0.0863763
-4.01669	falsespeaking	-0.0863764
-3.72471	fame	-0.0863766
-4.01669	familiar	-0.0863764
-4.01669	famine	-0.0863763
-4.01669	famished	-0.0863764
-4.01669	famoused	-0.0863764
-3.06051	far	-0.114562
-4.01669	farewell	-0.0863764
-4.01669	faring	-0.0863766
-3.57805	farther	-0.121904
-3.8614	farthest	-0.0863765
-3.8614	fashion	-0.0863767
-3.8614	fast	-0.0863765
-4.01669	faster	-0.0863763
-4.01669	fate	-0.0863764
-3.8614	father	-0.0863765
-3.72471	fault	-0.0863766
-3.24636	faults	-0.0863765
-3.72471	favour	-0.0863766
-4.01669	favourites	-0.0863766
-4.01669	fawn	-0.0863765
-3.38128	fear	-0.0863764
-4.01669	fearful	-0.0863764
-4.01669	fearfully	-0.0863767
-4.01669	fearing	-0.0863765
-3.46861	fears	-0.109736
-3.8614	feast	-0.0863767
-4.01669	feasting	-0.0863767
-4.01669	feasts	-0.0863766
-4.01669	feathered	-0.0863764
-4.01669	feathers	-0.0863763
-4.01669	feature	-0.0863764
-4.01669	featured	-0.0863765
-4.01669	featureless	-0.0863764
-4.01669	fed	-0.0863766
-4.01669	fee	-0.0863764
-4.01669	feeble	-0.0863762
-4.01669	feed	-0.0863767
-3.72471	feeding	-0.0863766
-3.8614	feeds	-0.160599
-4.01669	feedst	-0.0863766
-3.8614	feel	-0.0863767
-3.8614	feeling	-0.0863767
-4.01669	feelst	-0.0863764
-4.01669	feil	-0.0863765
-3.57805	fell	-0.0863765
-4.01669	felt	-0.0863763
-4.01669	female	-0.0863766
-4.01669	fester	-0.0863766
-3.8614	fever	-0.0863767
-4.01669	few	-0.0863765
-3.8614	fickle	-0.0863765
-4.01669	field	-0.0863764
-3.8614	fiend	-0.160598
-3.8614	fierce	-0.0863765
-4.01669	fiery	-0.0863764
-3.72471	fight	-0.378729
-4.01669	figure	-0.0863764
-4.01669	figured	-0.0863763
-4.01669	figures	-0.0863765
-4.01669	filching	-0.0863762
-4.01669	filed	-0.0863764
-3.72471	fill	-0.134423
-3.72471	filled	-0.0863765
-3.06051	find	-0.228657
-4.01669	finding	-0.0863765
-3.8614	finds	-0.0863767
-3.8614	fine	-0.0863765
-4.01669	finger	-0.0863765
-3.8614	fingers	-0.0863764
-3.19193	fire	-0.171712
-4.01669	firm	-0.0863764
-3.3086	first	-0.109736
-4.01669	firstborn	-0.0863764
-4.01669	fist	-0.0863765
-4.01669	fits	-0.0863764
-4.01669	fitted	-0.0863764
-3.8614	five	-0.0863764
-3.8614	fixed	-0.0863768
-3.72471	flame	-0.0863765
-3.72471	flatter	-0.0863767
-4.01669	flattered	-0.0863765
-4.01669	flatterer	-0.0863764
-3.72471	flattery	-0.0863767
-3.8614	fled	-0.160598
-4.01669	fleece	-0.0863767
-4.01669	fleeting	-0.0863765
-4.01669	fleetst	-0.0863764
-3.72471	flesh	-0.0863765
-3.8614	flies	-0.0863765
-4.01669	flourish	-0.0863765
-4.01669	flow	-0.0863764
-3.46861	flower	-0.0863764
-3.24636	flowers	-0.0863765
-4.01669	flown	-0.0863767
-4.01669	fly	-0.0863764
-4.01669	foe	-0.0863763
-3.72471	foes	-0.134423
-4.01669	foiled	-0.0863764
-4.01669	foison	-0.0863765
-4.01669	foist	-0.0863765
-3.8614	follow	-0.0863764
-4.01669	followed	-0.0863764
-4.01669	follows	-0.0863763
-3.8614	folly	-0.0863765
-3.8614	fond	-0.0863765
-4.01669	food	-0.0863763
-3.72471	fool	-0.0863764
-4.01669	foolish	-0.0863767
-4.01669	fools	-0.0863765
-3.72471	foot	-0.0863765
-2.26053	for	-0.249493
-3.8614	forbear	-0.0863769
-3.72471	forbid	-0.0863766
-4.01669	forbidden	-0.0863764
-3.8614	force	-0.0863767
-4.01669	forced	-0.0863763
-4.01669	fore	-0.0863764
-4.01669	forebemoaned	-0.0863765
-4.01669	foregone	-0.0863764
-4.01669	forests	-0.0863764
-3.8614	forfeit	-0.0863767
-4.01669	forged	-0.0863764
-3.8614	forget	-0.0863767
-4.01669	forgetful	-0.0863763
-4.01669	forgetfulness	-0.0863762
-4.01669	forgetst	-0.0863766
-4.01669	forgive	-0.0863766
-4.01669	forgoing	-0.0863766
-3.57805	forgot	-0.121904
-4.01669	forgotten	-0.0863764
-4.01669	forlorn	-0.0863764
-3.14356	form	-0.0989618
-3.72471	former	-0.0863764
-3.8614	forsake	-0.0863767
-4.01669	forsaken	-0.0863764
-3.57805	forsworn	-0.285269
-4.01669	fort	-0.0863763
-3.38128	forth	-0.109736
-3.8614	fortify	-0.0863767
-3.46861	fortune	-0.0863765
-3.72471	fortunes	-0.0863764
-4.01669	forty	-0.0863765
-4.01669	forward	-0.0863764
-4.01669	forwards	-0.0863765
-3.38128	foul	-0.0863765
-3.3086	found	-0.101809
-4.01669	fountains	-0.0863764
-4.01669	four	-0.0863765
-4.01669	fragrant	-0.0863765
-4.01669	frailer	-0.0863764
-3.8614	frailties	-0.0863764
-3.57805	frame	-0.121904
-4.01669	frank	-0.0863764
-4.01669	franticmad	-0.0863765
-3.57805	free	-0.503668
-4.01669	freedom	-0.0863765
-4.01669	freezings	-0.0863765
-4.01669	frequent	-0.0863765
-3.3086	fresh	-0.0863764
-4.01669	fresher	-0.0863764
-3.19193	friend	-0.285656
-3.57805	friends	-0.0863765
-2.332	from	-0.302046
-4.01669	front	-0.0863765
-4.01669	frost	-0.0863764
-3.72471	frown	-0.0863767
-4.01669	frowns	-0.0863764
-4.01669	frownst	-0.0863764
-4.01669	fruit	-0.0863764
-4.01669	fuel	-0.0863764
-3.8614	fulfil	-0.0863768
-3.10005	full	-0.109735
-4.01669	fulness	-0.0863764
-4.01669	function	-0.0863764
-4.01669	furrows	-0.0863765
-4.01669	fury	-0.0863767
-3.57805	gain	-0.285269
-4.01669	gainer	-0.0863762
-4.01669	gains	-0.0863764
-3.38128	gainst	-0.109735
-4.01669	gait	-0.0863764
-4.01669	gaol	-0.0863764
-4.01669	gardens	-0.0863766
-3.8614	garments	-0.0863764
-4.01669	gate	-0.0863764
-4.01669	gates	-0.0863765
-4.01669	gathered	-0.0863764
-4.01669	gaudy	-0.0863766
-3.46861	gave	-0.0863764
-4.01669	gavst	-0.0863764
-3.8614	gay	-0.160598
-3.8614	gaze	-0.0863765
-4.01669	gazed	-0.0863767
-4.01669	gazers	-0.0863764
-4.01669	gazeth	-0.0863764
-4.01669	gazing	-0.0863765
-4.01669	gems	-0.0863764
-3.72471	general	-0.0863765
-3.02426	gentle	-0.0863766
-4.01669	gentlest	-0.0863763
-4.01669	gently	-0.0863764
-4.01669	get	-0.0863765
-4.01669	ghastly	-0.0863767
-4.01669	ghost	-0.0863764
-3.46861	gift	-0.0863764
-4.01669	gifts	-0.0863763
-3.72471	gilded	-0.0863764
-4.01669	gilding	-0.0863765
-4.01669	gildst	-0.0863762
-4.01669	girded	-0.0863762
-2.87803	give	-0.222253
-3.72471	given	-0.0863764
-3.24636	gives	-0.103777
-3.8614	giving	-0.0863765
-3.8614	glad	-0.0863765
-4.01669	gladly	-0.0863764
-3.8614	glance	-0.0863764
-3.3086	glass	-0.182318
-4.01669	glazed	-0.0863765
-4.01669	glorious	-0.0863764
-3.24636	glory	-0.103777
-4.01669	glowing	-0.0863765
-4.01669	glutton	-0.0863765
-4.01669	gluttoning	-0.0863767
-3.46861	go	-0.208403
-3.8614	god	-0.0863765
-3.8614	goddess	-0.0863762
-4.01669	goes	-0.0863763
-4.01669	goest	-0.0863764
-4.01669	going	-0.0863763
-3.8614	gold	-0.0863764
-3.57805	golden	-0.0863764
-3.24636	gone	-0.441658
-3.10005	good	-0.10632
-4.01669	goodly	-0.0863763
-3.8614	goodness	-0.0863765
-4.01669	gored	-0.0863765
-3.72471	got	-0.0863766
-4.01669	governs	-0.0863764
-3.10005	grace	-0.0989619
-4.01669	graced	-0.0863765
-3.57805	graces	-0.114562
-3.46861	gracious	-0.0863764
-4.01669	graciously	-0.0863765
-3.8614	grant	-0.0863764
-4.01669	granting	-0.0863764
-3.8614	grave	-0.0863767
-4.01669	graven	-0.0863762
-4.01669	graves	-0.0863765
-4.01669	gravity	-0.0863764
-3.24636	great	-0.0863764
-3.57805	greater	-0.0863766
-4.01669	greatest	-0.0863766
-4.01669	grecian	-0.0863764
-4.01669	greeing	-0.0863764
-3.46861	green	-0.382179
-3.8614	greet	-0.0863766
-3.57805	grew	-0.121904
-4.01669	grey	-0.0863766
-3.72471	grief	-0.285269
-3.8614	griefs	-0.0863764
-4.01669	grievances	-0.0863764
-4.01669	grieve	-0.0863765
-4.01669	grieved	-0.0863765
-4.01669	grind	-0.0863764
-3.57805	groan	-0.285269
-4.01669	groans	-0.0863767
-3.8614	gross	-0.0863764
-4.01669	grossly	-0.0863764
-3.8614	ground	-0.160598
-3.8614	grounded	-0.0863765
-3.3086	grow	-0.27535
-3.72471	growing	-0.0863766
-3.57805	grown	-0.0863765
-3.57805	grows	-0.121904
-3.8614	growst	-0.160598
-3.72471	growth	-0.0863767
-3.8614	guard	-0.0863768
-3.8614	guess	-0.0863765
-3.8614	guest	-0.160598
-4.01669	guides	-0.0863767
-4.01669	guilt	-0.0863763
-3.8614	guilty	-0.0863763
-4.01669	gulls	-0.0863762
-4.01669	gust	-0.0863767
-4.01669	gusts	-0.0863765
-4.01669	habit	-0.0863767
-4.01669	habitation	-0.0863764
-2.95975	had	-0.137716
-4.01669	hadst	-0.0863765
-4.01669	hair	-0.0863764
-4.01669	hairs	-0.0863765
-3.72471	half	-0.0863764
-4.01669	hallowed	-0.0863766
-4.01669	halt	-0.0863764
-4.01669	hammered	-0.0863766
-2.93077	hand	-0.185519
-3.8614	hands	-0.0863765
-3.72471	hang	-0.0863766
-4.01669	hanging	-0.0863766
-4.01669	hap	-0.0863763
-3.72471	haply	-0.0863765
-3.72471	happier	-0.0863765
-4.01669	happies	-0.0863765
-3.10005	happy	-0.0989618
-4.01669	hard	-0.0863764
-4.01669	harder	-0.0863764
-4.01669	hardest	-0.0863766
-4.01669	harmful	-0.0863765
-4.01669	harsh	-0.0863764
-4.01669	harvest	-0.0863764
-3.14356	hast	-0.185519
-3.8614	haste	-0.0863767
-4.01669	hasten	-0.0863763
-2.99081	hate	-0.311391
-4.01669	hated	-0.0863763
-4.01669	hates	-0.0863764
-4.01669	hateth	-0.0863762
-2.62264	hath	-0.157676
-4.01669	hatred	-0.0863762
-2.53546	have	-0.173325
-3.46861	having	-0.0863764
-3.8614	hawks	-0.160599
-2.69773	he	-0.119015
-3.57805	head	-0.237538
-4.01669	heals	-0.0863762
-3.8614	health	-0.0863764
-3.8614	healthful	-0.0863765
-3.57805	hear	-0.0863764
-4.01669	heard	-0.0863762
-4.01669	hearing	-0.0863764
-4.01669	hearsay	-0.0863765
-4.01669	hearst	-0.0863764
-2.9036	heart	-0.206284
-4.01669	heartinflaming	-0.0863765
-3.19193	hearts	-0.0863764
-3.57805	heat	-0.0863764
-4.01669	heats	-0.0863765
-3.10005	heaven	-0.0970013
-3.72471	heavenly	-0.0863764
-3.46861	heavens	-0.109736
-3.8614	heavily	-0.0863765
-3.38128	heavy	-0.0863764
-4.01669	heed	-0.0863767
-3.72471	height	-0.0863765
-4.01669	heinous	-0.0863766
-3.72471	heir	-0.134423
-3.8614	held	-0.160598
-4.01669	helens	-0.0863766
-3.38128	hell	-0.174535
-3.57805	help	-0.0863764
-4.01669	hems	-0.0863764
-3.46861	hence	-0.0863764
-2.55864	her	-0.0917608
-4.01669	herald	-0.0863763
-4.01669	herd	-0.0863764
-3.57805	here	-0.0863766
-4.01669	herein	-0.0863764
-4.01669	heres	-0.0863762
-4.01669	heretic	-0.0863764
-4.01669	hers	-0.0863766
-4.01669	herself	-0.0863767
-4.01669	hes	-0.0863764
-3.8614	hid	-0.0863768
-4.01669	hidden	-0.0863762
-3.46861	hide	-0.382179
-3.8614	hideous	-0.0863765
-4.01669	hides	-0.0863765
-4.01669	hiding	-0.0863766
-4.01669	hied	-0.0863765
-3.57805	high	-0.0863765
-4.01669	highmost	-0.0863764
-4.01669	hill	-0.0863764
-2.65114	him	-0.111043
-3.8614	himself	-0.0863764
-4.01669	hindmost	-0.0863765
-2.3181	his	-0.105753
-4.01669	history	-0.0863764
-4.01669	hits	-0.0863764
-4.01669	hoisted	-0.0863766
-3.06051	hold	-0.107894
-3.46861	holds	-0.114562
-3.57805	holy	-0.0863764
-4.01669	homage	-0.0863763
-3.72471	home	-0.0863765
-4.01669	honest	-0.0863765
-4.01669	honey	-0.0863765
-3.3086	honour	-0.0863764
-4.01669	honouring	-0.0863764
-4.01669	hooks	-0.0863764
-3.46861	hope	-0.109735
-3.8614	hopes	-0.0863764
-3.8614	horse	-0.0863767
-4.01669	horses	-0.0863765
-3.72471	hot	-0.0863764
-4.01669	hounds	-0.0863764
-3.57805	hour	-0.121904
-3.06051	hours	-0.109736
-4.01669	house	-0.0863766
-3.02426	how	-0.147423
-3.72471	hue	-0.121904
-4.01669	hues	-0.0863762
-4.01669	huge	-0.0863765
-4.01669	hugely	-0.0863764
-4.01669	humble	-0.0863765
-3.8614	humour	-0.0863765
-4.01669	hundred	-0.0863764
-3.8614	hung	-0.0863766
-3.8614	hungry	-0.0863765
-4.01669	hunted	-0.0863764
-4.01669	hurt	-0.0863764
-3.72471	husband	-0.0863765
-3.8614	husbandry	-0.0863768
-4.01669	husbands	-0.0863765
-4.01669	hush	-0.0863762
-4.01669	huswife	-0.0863764
-4.01669	hymn	-0.0863766
-3.8614	hymns	-0.0863764
-1.9889	i	-0.254982
-3.8614	idle	-0.0863765
-4.01669	idly	-0.0863765
-4.01669	idol	-0.0863762
-4.01669	idolatry	-0.0863764
-2.78858	if	-0.231058
-3.8614	ignorance	-0.0863767
-2.831	ill	-0.248308
-3.8614	ills	-0.0863764
-4.01669	illused	-0.0863765
-4.01669	illwresting	-0.0863764
-3.57805	image	-0.0863765
-4.01669	images	-0.0863765
-4.01669	imaginary	-0.0863763
-4.01669	imitate	-0.0863762
-4.01669	imitated	-0.0863764
-4.01669	immortal	-0.0863762
-4.01669	immured	-0.0863767
-4.01669	impair	-0.0863765
-4.01669	impanelled	-0.0863764
-4.01669	impart	-0.0863764
-4.01669	impeached	-0.0863766
-4.01669	impediments	-0.0863766
-4.01669	imperfect	-0.0863766
-4.01669	impiety	-0.0863764
-4.01669	import	-0.0863764
-4.01669	importune	-0.0863762
-4.01669	impregnable	-0.0863764
-4.01669	impression	-0.0863766
-4.01669	imprint	-0.0863765
-3.8614	imprisoned	-0.0863764
-4.01669	impute	-0.0863764
-1.83191	in	-0.371339
-4.01669	incapable	-0.0863765
-4.01669	incertainties	-0.0863767
-4.01669	incertainty	-0.0863764
-3.8614	inconstant	-0.0863765
-3.57805	increase	-0.503668
-4.01669	increasing	-0.0863764
-4.01669	indeed	-0.0863764
-4.01669	indigest	-0.0863764
-4.01669	indirectly	-0.0863766
-4.01669	infants	-0.0863764
-3.72471	infection	-0.0863766
-4.01669	inferior	-0.0863763
-3.8614	influence	-0.0863764
-4.01669	informer	-0.0863765
-4.01669	inhabit	-0.0863767
-4.01669	inhearse	-0.0863764
-4.01669	inherit	-0.0863765
-4.01669	inheritors	-0.0863765
-4.01669	iniquity	-0.0863764
-3.8614	injuries	-0.0863767
-3.8614	injurious	-0.0863765
-3.72471	injury	-0.134423
-3.8614	ink	-0.0863765
-4.01669	instant	-0.0863764
-4.01669	instinct	-0.0863762
-4.01669	insufficiency	-0.0863767
-4.01669	insults	-0.0863765
-4.01669	intelligence	-0.0863764
-4.01669	intend	-0.0863765
-4.01669	intents	-0.0863764
-4.01669	interchange	-0.0863765
-3.8614	interest	-0.0863765
-4.01669	interim	-0.0863765
-4.01669	intermixed	-0.0863764
-3.57805	into	-0.114562
-3.8614	invent	-0.160598
-3.46861	invention	-0.0863765
-4.01669	invited	-0.0863764
-4.01669	inviting	-0.0863766
-4.01669	invocate	-0.0863764
-4.01669	invoked	-0.0863762
-3.57805	inward	-0.0863765
-2.13185	is	-0.23753
-3.8614	issue	-0.0863764
-4.01669	issueless	-0.0863765
-3.8614	ist	-0.0863765
-2.26053	it	-0.219351
-3.8614	jacks	-0.0863764
-4.01669	jade	-0.0863764
-4.01669	jaws	-0.0863764
-4.01669	jealous	-0.0863767
-4.01669	jealousy	-0.0863764
-3.57805	jewel	-0.0863766
-3.8614	jewels	-0.0863766
-4.01669	join	-0.0863765
-4.01669	jollity	-0.0863764
-3.8614	journey	-0.0863766
-3.3086	joy	-0.0863765
-3.8614	judgement	-0.0863765
-3.8614	judgment	-0.0863764
-4.01669	judgments	-0.0863764
-4.01669	jump	-0.0863762
-4.01669	junes	-0.0863764
-3.57805	just	-0.0863764
-4.01669	justify	-0.0863762
-3.8614	keen	-0.0863767
-3.3086	keep	-0.101809
-3.57805	keeps	-0.0863765
-4.01669	keepst	-0.0863764
-3.72471	kept	-0.0863766
-4.01669	key	-0.0863764
-3.57805	kill	-0.285269
-4.01669	kills	-0.0863764
-3.24636	kind	-0.333343
-4.01669	kindhearted	-0.0863763
-3.8614	kindness	-0.0863767
-4.01669	kinds	-0.0863765
-3.8614	king	-0.0863767
-4.01669	kingdom	-0.0863765
-4.01669	kingdoms	-0.0863765
-4.01669	kingly	-0.0863764
-3.8614	kings	-0.160598
-3.8614	kiss	-0.0863766
-4.01669	kissing	-0.0863765
-4.01669	knew	-0.0863767
-3.57805	knife	-0.285269
-4.01669	knights	-0.0863764
-4.01669	knit	-0.0863764
-3.06051	know	-0.252995
-3.72471	knowing	-0.121904
-3.72471	knowledge	-0.0863765
-4.01669	known	-0.0863766
-3.19193	knows	-0.0989617
-4.01669	knowst	-0.0863765
-4.01669	labouring	-0.0863764
-4.01669	lace	-0.0863764
-3.57805	lack	-0.121904
-3.8614	lacked	-0.0863766
-4.01669	lacking	-0.0863765
-4.01669	ladies	-0.0863762
-3.57805	laid	-0.121904
-4.01669	lamb	-0.0863763
-4.01669	lambs	-0.0863765
-3.8614	lame	-0.0863765
-4.01669	lameness	-0.0863764
-4.01669	land	-0.0863764
-4.01669	languished	-0.0863764
-4.01669	lap	-0.0863766
-3.46861	large	-0.0863764
-4.01669	largess	-0.0863766
-4.01669	lark	-0.0863765
-3.8614	lascivious	-0.0863765
-3.8614	last	-0.0863767
-4.01669	lasting	-0.0863765
-4.01669	latch	-0.0863764
-4.01669	late	-0.0863762
-4.01669	laughed	-0.0863764
-3.72471	lawful	-0.0863764
-4.01669	laws	-0.0863764
-3.8614	lay	-0.0863767
-3.57805	lays	-0.0863766
-3.8614	lead	-0.0863765
-3.8614	leads	-0.0863765
-4.01669	league	-0.0863767
-4.01669	lean	-0.0863764
-3.8614	leap	-0.0863767
-4.01669	leaped	-0.0863765
-3.8614	learn	-0.0863764
-4.01669	learned	-0.0863767
-4.01669	learneds	-0.0863764
-3.8614	learning	-0.0863764
-3.57805	lease	-0.121904
-4.01669	leases	-0.0863765
-3.57805	least	-0.0863765
-3.19193	leave	-0.114562
-3.24636	leaves	-0.0863764
-4.01669	leaving	-0.0863762
-4.01669	leese	-0.0863767
-3.46861	left	-0.0863765
-4.01669	legacy	-0.0863764
-4.01669	legions	-0.0863765
-3.57805	leisure	-0.0863766
-3.46861	lend	-0.237538
-3.57805	lends	-0.0863765
-4.01669	length	-0.0863763
-4.01669	lengths	-0.0863765
-3.3086	less	-0.0863764
-4.01669	lesser	-0.0863765
-4.01669	lesson	-0.0863764
-3.8614	lest	-0.103777
-2.99081	let	-0.203393
-4.01669	lets	-0.0863766
-3.8614	level	-0.0863765
-3.8614	liberty	-0.0863767
-3.19193	lie	-0.384494
-3.06051	lies	-0.422812
-2.95975	life	-0.183591
-4.01669	lifes	-0.0863764
-4.01669	lifts	-0.0863762
-3.38128	light	-0.67976
-4.01669	lights	-0.0863766
-2.76883	like	-0.287875
-4.01669	likeness	-0.0863765
-4.01669	liker	-0.0863763
-4.01669	lilies	-0.0863766
-4.01669	lily	-0.0863765
-4.01669	lilys	-0.0863765
-4.01669	limbecks	-0.0863765
-3.8614	limbs	-0.0863764
-4.01669	limit	-0.0863765
-4.01669	limits	-0.0863763
-4.01669	limping	-0.0863764
-3.8614	line	-0.0863766
-3.24636	lines	-0.121904
-4.01669	linger	-0.0863767
-4.01669	lions	-0.0863764
-4.01669	lip	-0.0863765
-3.38128	lips	-0.0863764
-4.01669	liquid	-0.0863764
-4.01669	list	-0.0863765
-3.8614	little	-0.0863765
-2.76883	live	-0.252093
-3.57805	lived	-0.0863764
-3.8614	lively	-0.0863765
-4.01669	livery	-0.0863766
-3.19193	lives	-0.101809
-3.38128	living	-0.0863765
-4.01669	lo	-0.0863765
-4.01669	loan	-0.0863764
-4.01669	loathsome	-0.0863765
-4.01669	locked	-0.0863762
-4.01669	lodged	-0.0863763
-3.8614	lofty	-0.0863765
-3.3086	long	-0.117809
-3.72471	longer	-0.0863765
-4.01669	longing	-0.0863766
-4.01669	longlived	-0.0863764
-3.14356	look	-0.148867
-3.8614	looked	-0.0863765
-3.8614	looking	-0.134423
-3.10005	looks	-0.0863765
-4.01669	lord	-0.0863765
-3.8614	lords	-0.0863762
-3.3086	lose	-0.0863764
-3.72471	losing	-0.0863764
-3.3086	loss	-0.174535
-4.01669	losses	-0.0863764
-3.57805	lost	-0.0863766
-4.01669	loud	-0.0863764
-4.01669	lourst	-0.0863767
-2.40073	love	-0.2551
-3.57805	loved	-0.0863765
-4.01669	lovegod	-0.0863764
-4.01669	lovekindling	-0.0863764
-4.01669	loveliness	-0.0863763
-3.46861	lovely	-0.0863765
-4.01669	lover	-0.0863764
-3.72471	lovers	-0.0863764
-2.80927	loves	-0.0985864
-4.01669	lovesuit	-0.0863763
-3.19193	loving	-0.101809
-3.72471	lovst	-0.0863765
-4.01669	low	-0.0863764
-4.01669	luck	-0.0863764
-3.8614	lust	-0.0863768
-3.8614	lusty	-0.0863764
-4.01669	lying	-0.0863764
-3.46861	mad	-0.109735
-4.01669	madding	-0.0863764
-2.93077	made	-0.155184
-4.01669	madness	-0.0863765
-4.01669	maid	-0.0863765
-3.72471	maiden	-0.0863764
-3.72471	main	-0.0863766
-4.01669	maintain	-0.0863764
-3.8614	majesty	-0.160598
-2.80927	make	-0.188087
-4.01669	makeless	-0.0863764
-3.46861	makes	-0.0863765
-4.01669	maketh	-0.0863765
-3.38128	making	-0.0989619
-3.8614	makst	-0.0863765
-3.8614	maladies	-0.0863765
-3.8614	man	-0.0863766
-4.01669	manner	-0.0863765
-3.72471	manners	-0.0863765
-3.8614	mans	-0.0863764
-3.8614	mansion	-0.0863764
-3.3086	many	-0.143118
-4.01669	manys	-0.0863763
-3.8614	map	-0.0863763
-4.01669	mar	-0.0863762
-4.01669	marble	-0.0863764
-4.01669	march	-0.0863762
-4.01669	marigold	-0.0863765
-4.01669	marjoram	-0.0863762
-3.72471	mark	-0.0863767
-4.01669	marriage	-0.0863765
-3.8614	married	-0.0863767
-4.01669	mars	-0.0863762
-4.01669	marvel	-0.0863763
-3.72471	masked	-0.0863765
-4.01669	masonry	-0.0863764
-3.8614	master	-0.0863764
-4.01669	matcheth	-0.0863765
-3.72471	matter	-0.0863766
-4.01669	maturity	-0.0863764
-2.85388	may	-0.163868
-3.46861	mayst	-0.0978988
-2.15943	me	-0.225805
-4.01669	meadows	-0.0863765
-3.72471	means	-0.0863764
-4.01669	meant	-0.0863764
-3.8614	measure	-0.0863767
-4.01669	measured	-0.0863763
-4.01669	medicine	-0.0863765
-4.01669	meditation	-0.0863763
-3.8614	meet	-0.160598
-4.01669	meetness	-0.0863764
-4.01669	melancholy	-0.0863764
-4.01669	memorial	-0.0863766
-3.3086	memory	-0.441658
-3.06051	men	-0.170665
-3.72471	mend	-0.134423
-4.01669	mended	-0.0863765
-3.46861	mens	-0.208404
-4.01669	merchandized	-0.0863763
-4.01669	mercy	-0.0863763
-3.57805	merit	-0.0863765
-4.01669	merits	-0.0863765
-4.01669	messengers	-0.0863764
-3.57805	methinks	-0.0863764
-4.01669	methods	-0.0863764
-4.01669	metre	-0.0863765
-4.01669	middle	-0.0863762
-2.76883	might	-0.252324
-4.01669	mightier	-0.0863766
-3.8614	mightst	-0.0863765
-3.8614	miles	-0.0863765
-4.01669	millioned	-0.0863764
-4.01669	millions	-0.0863765
-3.24636	mind	-0.196806
-4.01669	minded	-0.0863766
-3.57805	minds	-0.121904
-2.5469	mine	-0.452585
-4.01669	minion	-0.0863765
-3.57805	minutes	-0.0863765
-4.01669	miracle	-0.0863765
-4.01669	miscalled	-0.0863764
-4.01669	miser	-0.0863764
-4.01669	misplaced	-0.0863764
-4.01669	misprision	-0.0863766
-4.01669	missed	-0.0863764
-4.01669	mistake	-0.0863767
-4.01669	mistaking	-0.0863764
-3.72471	mistress	-0.0863765
-4.01669	misuse	-0.0863762
-4.01669	mixed	-0.0863765
-3.46861	moan	-0.38218
-3.72471	mock	-0.0863765
-4.01669	modern	-0.0863764
-4.01669	moiety	-0.0863764
-4.01669	moment	-0.0863764
-4.01669	monarchs	-0.0863766
-4.01669	monsters	-0.0863764
-3.8614	monument	-0.0863767
-4.01669	monuments	-0.0863764
-4.01669	moods	-0.0863764
-3.72471	moon	-0.0863765
-2.50287	more	-0.177193
-3.8614	morn	-0.0863767
-3.8614	morning	-0.0863765
-4.01669	morrow	-0.0863764
-3.57805	mortal	-0.0863764
-4.01669	mortality	-0.0863764
-4.01669	mortgaged	-0.0863763
-2.831	most	-0.0966036
-3.8614	mother	-0.160598
-3.72471	mothers	-0.0863764
-3.46861	motion	-0.0863765
-4.01669	motley	-0.0863763
-4.01669	mountain	-0.0863764
-4.01669	mounted	-0.0863767
-3.72471	mourn	-0.134423
-3.8614	mourners	-0.0863765
-4.01669	mournful	-0.0863764
-3.8614	mourning	-0.0863765
-4.01669	mouthed	-0.0863764
-4.01669	mouths	-0.0863765
-4.01669	move	-0.0863764
-3.8614	moving	-0.0863767
-4.01669	mow	-0.0863764
-3.10005	much	-0.0949895
-4.01669	mud	-0.0863764
-3.72471	murdrous	-0.0863764
-3.02426	muse	-0.0955697
-4.01669	muses	-0.0863764
-3.38128	music	-0.0863764
-2.9036	must	-0.19865
-3.8614	mute	-0.160598
-3.8614	mutual	-0.0863765
-1.90467	my	-0.271
-4.01669	naked	-0.0863765
-3.14356	name	-0.229893
-4.01669	naming	-0.0863766
-4.01669	nativity	-0.0863764
-3.19193	nature	-0.0863765
-3.38128	natures	-0.0863765
-4.01669	nay	-0.0863765
-3.46861	near	-0.38218
-4.01669	nearly	-0.0863764
-4.01669	necessary	-0.0863766
-4.01669	neck	-0.0863765
-3.46861	need	-0.144705
-4.01669	needing	-0.0863764
-3.46861	needs	-0.144704
-4.01669	needst	-0.0863764
-4.01669	needy	-0.0863762
-3.72471	neer	-0.0863764
-4.01669	neercloying	-0.0863764
-3.8614	neglect	-0.0863763
-4.01669	neglected	-0.0863764
-4.01669	neigh	-0.0863767
-3.8614	neither	-0.0863766
-4.01669	nerves	-0.0863766
-3.06051	never	-0.096234
-4.01669	neverresting	-0.0863766
-2.78858	new	-0.246496
-4.01669	newappearing	-0.0863763
-3.8614	newer	-0.0863764
-4.01669	newfangled	-0.0863766
-4.01669	newfired	-0.0863764
-4.01669	newfound	-0.0863764
-4.01669	news	-0.0863767
-3.8614	next	-0.0863764
-3.8614	niggard	-0.0863765
-4.01669	niggarding	-0.0863764
-2.9036	night	-0.358755
-3.8614	nightly	-0.0863764
-3.8614	nights	-0.0863766
-3.8614	nimble	-0.0863765
-4.01669	nine	-0.0863764
-2.43516	no	-0.136879
-4.01669	nobler	-0.0863762
-3.06051	none	-0.138481
-4.01669	noon	-0.0863764
-2.71444	nor	-0.132527
-2.17391	not	-0.209795
-3.8614	note	-0.0863767
-3.8614	noted	-0.0863765
-2.95975	nothing	-0.0863764
-3.72471	nought	-0.0863767
-4.01669	nourished	-0.0863766
-4.01669	novel	-0.0863762
-2.62264	now	-0.204591
-3.72471	number	-0.0863765
-3.57805	numbers	-0.0863764
-4.01669	nurse	-0.0863766
-4.01669	nursed	-0.0863764
-4.01669	nurseth	-0.0863762
-4.01669	nymphs	-0.0863766
-3.57805	o	-0.0938156
-3.57805	oaths	-0.121904
-4.01669	object	-0.0863764
-3.8614	objects	-0.0863767
-4.01669	oblation	-0.0863763
-4.01669	oblivion	-0.0863764
-3.8614	obsequious	-0.0863766
-3.8614	ocean	-0.0863764
-3.72471	odour	-0.0863765
-4.01669	odours	-0.0863767
-3.38128	oer	-0.0863764
-4.01669	oercharged	-0.0863765
-4.01669	oergreen	-0.0863767
-4.01669	oerlook	-0.0863764
-4.01669	oerpressed	-0.0863766
-4.01669	oerread	-0.0863764
-4.01669	oersnowed	-0.0863764
-4.01669	oersways	-0.0863766
-4.01669	oertake	-0.0863764
-4.01669	oerworn	-0.0863764
-1.66674	of	-0.328966
-3.8614	off	-0.0863765
-3.8614	offence	-0.160598
-3.8614	offences	-0.0863763
-4.01669	offend	-0.0863764
-3.8614	offenders	-0.0863764
-4.01669	office	-0.0863763
-4.01669	offices	-0.0863766
-3.57805	oft	-0.114562
-3.8614	often	-0.0863765
-2.85388	old	-0.164807
-4.01669	older	-0.0863764
-4.01669	olives	-0.0863765
-2.30463	on	-0.270484
-3.14356	once	-0.0863764
-2.73182	one	-0.166177
-3.38128	only	-0.0863765
-4.01669	onset	-0.0863763
-4.01669	onward	-0.0863764
-4.01669	onwards	-0.0863766
-3.8614	open	-0.0863767
-3.8614	oppressed	-0.0863767
-4.01669	oppression	-0.0863767
-2.53546	or	-0.0965274
-4.01669	ordering	-0.0863764
-4.01669	orient	-0.0863764
-3.46861	ornament	-0.0863765
-4.01669	ornaments	-0.0863764
-4.01669	orphans	-0.0863764
-3.06051	other	-0.0944783
-3.02426	others	-0.0863765
-2.95975	our	-0.0863763
-2.93077	out	-0.185111
-4.01669	outbraves	-0.0863762
-4.01669	outcast	-0.0863763
-4.01669	outgoing	-0.0863762
-3.72471	outlive	-0.0863764
-4.01669	outright	-0.0863765
-4.01669	outstripped	-0.0863766
-3.46861	outward	-0.0863764
-3.8614	outworn	-0.0863767
-4.01669	over	-0.0863764
-4.01669	overgoes	-0.0863767
-4.01669	overpartial	-0.0863763
-4.01669	overplus	-0.0863764
-4.01669	overthrow	-0.0863764
-4.01669	overturn	-0.0863764
-4.01669	owe	-0.0863764
-4.01669	owes	-0.0863762
-3.19193	own	-0.125503
-3.8614	owners	-0.0863763
-4.01669	owst	-0.0863764
-3.72471	pace	-0.0863766
-4.01669	page	-0.0863764
-4.01669	paid	-0.0863763
-3.57805	pain	-0.285269
-4.01669	painful	-0.0863764
-3.46861	painted	-0.0863765
-4.01669	painter	-0.0863762
-4.01669	painters	-0.0863766
-3.46861	painting	-0.0863765
-3.8614	palate	-0.0863764
-3.8614	pale	-0.0863765
-4.01669	paper	-0.0863763
-4.01669	papers	-0.0863764
-4.01669	parallels	-0.0863762
-4.01669	pardon	-0.0863765
-2.95975	part	-0.35228
-4.01669	partake	-0.0863764
-4.01669	particulars	-0.0863764
-4.01669	partly	-0.0863765
-3.3086	parts	-0.127225
-4.01669	party	-0.0863767
-3.72471	pass	-0.0863766
-3.8614	passed	-0.0863764
-4.01669	passion	-0.0863764
-3.3086	past	-0.103777
-4.01669	patent	-0.0863764
-3.8614	patience	-0.0863765
-4.01669	patient	-0.0863765
-3.8614	pattern	-0.0863765
-4.01669	paws	-0.0863764
-3.72471	pay	-0.0863766
-4.01669	paying	-0.0863762
-3.8614	pays	-0.0863765
-3.8614	peace	-0.0863763
-4.01669	pearl	-0.0863764
-4.01669	pebbled	-0.0863764
-4.01669	peep	-0.0863763
-3.19193	pen	-0.34363
-4.01669	penance	-0.0863763
-3.8614	pencil	-0.0863765
-3.8614	pent	-0.160599
-4.01669	penury	-0.0863765
-4.01669	perceive	-0.0863766
-4.01669	perceived	-0.0863764
-4.01669	perceivst	-0.0863764
-3.8614	perfect	-0.0863765
-3.8614	perfection	-0.0863765
-4.01669	perfectst	-0.0863766
-4.01669	perforce	-0.0863763
-4.01669	perfumed	-0.0863764
-3.8614	perfumes	-0.0863765
-4.01669	perhaps	-0.0863764
-4.01669	perish	-0.0863764
-3.72471	perjured	-0.0863765
-4.01669	permit	-0.0863762
-3.8614	perpetual	-0.0863767
-4.01669	perspective	-0.0863764
-4.01669	persuade	-0.0863764
-4.01669	perusal	-0.0863765
-4.01669	petty	-0.0863764
-4.01669	philomel	-0.0863762
-4.01669	phoenix	-0.0863762
-4.01669	phrase	-0.0863766
-3.8614	physic	-0.0863766
-4.01669	physician	-0.0863763
-4.01669	physicians	-0.0863763
-3.8614	picture	-0.0863765
-4.01669	pictured	-0.0863763
-4.01669	pictures	-0.0863763
-4.01669	pierced	-0.0863765
-3.8614	pilgrimage	-0.0863769
-3.72471	pine	-0.0863765
-4.01669	pipe	-0.0863762
-3.8614	pitch	-0.0863764
-4.01669	pitied	-0.0863765
-4.01669	pitiful	-0.0863764
-3.46861	pity	-0.0863764
-4.01669	pitying	-0.0863764
-4.01669	pitywanting	-0.0863766
-3.19193	place	-0.297873
-4.01669	placed	-0.0863764
-3.72471	plague	-0.0863764
-4.01669	plagues	-0.0863765
-4.01669	plain	-0.0863764
-4.01669	plants	-0.0863766
-3.57805	play	-0.237539
-4.01669	played	-0.0863762
-4.01669	playst	-0.0863764
-3.72471	plea	-0.0863766
-3.8614	plead	-0.0863764
-4.01669	pleasant	-0.0863767
-3.72471	please	-0.0863766
-4.01669	pleased	-0.0863763
-3.8614	pleasing	-0.0863765
-3.10005	pleasure	-0.312838
-4.01669	pleasures	-0.0863764
-4.01669	plight	-0.0863764
-4.01669	plods	-0.0863764
-4.01669	plot	-0.0863764
-3.57805	pluck	-0.0863766
-4.01669	poesy	-0.0863764
-3.8614	poet	-0.0863765
-3.72471	poets	-0.0863765
-3.8614	point	-0.0863763
-4.01669	pointing	-0.0863763
-4.01669	points	-0.0863767
-4.01669	poison	-0.0863762
-4.01669	poisoned	-0.0863764
-3.8614	policy	-0.0863765
-4.01669	polished	-0.0863764
-4.01669	politic	-0.0863764
-4.01669	pomp	-0.0863764
-3.06051	poor	-0.0863764
-4.01669	poorly	-0.0863764
-3.8614	possessed	-0.0863767
-4.01669	possesseth	-0.0863766
-3.8614	possessing	-0.0863767
-3.8614	possession	-0.0863763
-3.72471	posterity	-0.378729
-4.01669	posting	-0.0863767
-3.8614	potions	-0.0863763
-4.01669	pourst	-0.0863766
-3.8614	poverty	-0.0863767
-3.24636	power	-0.258108
-4.01669	powerful	-0.0863764
-4.01669	powers	-0.0863764
-2.831	praise	-0.213349
-3.8614	praised	-0.0863763
-3.72471	praises	-0.0863765
-3.8614	praising	-0.0863765
-4.01669	pray	-0.0863766
-4.01669	prayers	-0.0863764
-3.38128	precious	-0.0863764
-4.01669	predict	-0.0863766
-4.01669	prefiguring	-0.0863764
-3.8614	prepare	-0.0863768
-4.01669	preposterously	-0.0863765
-4.01669	presage	-0.0863764
-4.01669	presagers	-0.0863765
-4.01669	prescriptions	-0.0863764
-3.8614	presence	-0.0863764
-3.57805	present	-0.0863764
-4.01669	presentabsent	-0.0863765
-4.01669	presenteth	-0.0863766
-4.01669	presents	-0.0863766
-4.01669	presentst	-0.0863765
-4.01669	preserve	-0.0863762
-4.01669	press	-0.0863764
-4.01669	presume	-0.0863765
-3.72471	pretty	-0.0863764
-4.01669	prevailed	-0.0863764
-4.01669	prevent	-0.0863762
-4.01669	preventst	-0.0863762
-4.01669	prey	-0.0863765
-4.01669	pricked	-0.0863762
-3.10005	pride	-0.471645
-3.57805	prime	-0.503668
-3.72471	princes	-0.0863764
-4.01669	print	-0.0863764
-4.01669	prison	-0.0863767
-4.01669	prisoner	-0.0863764
-4.01669	private	-0.0863764
-4.01669	privilage	-0.0863765
-4.01669	privilege	-0.0863764
-3.72471	prize	-0.0863765
-4.01669	prizing	-0.0863766
-4.01669	proceed	-0.0863764
-4.01669	proceeds	-0.0863764
-4.01669	process	-0.0863765
-4.01669	proclaims	-0.0863764
-4.01669	profane	-0.0863763
-3.8614	profaned	-0.0863764
-4.01669	profit	-0.0863762
-4.01669	profitless	-0.0863764
-4.01669	profound	-0.0863764
-4.01669	prognosticate	-0.0863764
-4.01669	progress	-0.0863763
-4.01669	promise	-0.0863765
-4.01669	prone	-0.0863764
-3.72471	proof	-0.0863765
-4.01669	prophecies	-0.0863764
-4.01669	prophetic	-0.0863765
-4.01669	proposed	-0.0863766
-3.14356	proud	-0.143119
-4.01669	prouder	-0.0863763
-4.01669	proudest	-0.0863766
-4.01669	proudly	-0.0863765
-4.01669	proudpied	-0.0863766
-3.06051	prove	-0.509434
-3.72471	proved	-0.0863766
-3.8614	proves	-0.0863765
-4.01669	provide	-0.0863764
-4.01669	proving	-0.0863762
-4.01669	provoke	-0.0863762
-4.01669	pry	-0.0863764
-3.57805	public	-0.0863765
-4.01669	publish	-0.0863765
-4.01669	pupil	-0.0863764
-3.8614	pure	-0.0863762
-4.01669	purest	-0.0863765
-4.01669	purge	-0.0863764
-4.01669	purging	-0.0863764
-4.01669	purity	-0.0863765
-4.01669	purple	-0.0863763
-3.57805	purpose	-0.0863764
-4.01669	purposed	-0.0863764
-4.01669	pursuing	-0.0863767
-4.01669	pursuit	-0.086376
-3.38128	put	-0.106321
-4.01669	puts	-0.0863764
-4.01669	putst	-0.0863765
-4.01669	pyramids	-0.0863764
-4.01669	qualify	-0.0863764
-4.01669	quality	-0.0863764
-4.01669	queen	-0.0863764
-4.01669	quenched	-0.0863762
-3.8614	quest	-0.0863765
-4.01669	question	-0.0863765
-3.72471	quick	-0.0863764
-4.01669	quicker	-0.0863764
-4.01669	quickly	-0.0863764
-4.01669	quiet	-0.0863763
-4.01669	quietus	-0.0863767
-3.8614	quill	-0.0863767
-3.46861	quite	-0.237538
-4.01669	race	-0.0863764
-4.01669	rack	-0.0863767
-3.46861	rage	-0.237538
-4.01669	ragged	-0.0863767
-4.01669	raiment	-0.0863765
-3.72471	rain	-0.0863765
-4.01669	rainy	-0.0863764
-4.01669	raised	-0.0863766
-4.01669	random	-0.0863763
-4.01669	ranged	-0.0863764
-3.46861	rank	-0.0863765
-4.01669	ranks	-0.0863765
-3.8614	ransom	-0.0863765
-4.01669	ransoms	-0.0863765
-3.57805	rare	-0.503668
-4.01669	rarities	-0.0863765
-4.01669	rather	-0.0863765
-4.01669	raven	-0.0863763
-3.8614	razed	-0.0863764
-3.57805	read	-0.0863765
-4.01669	reap	-0.0863764
-4.01669	rearward	-0.0863765
-3.46861	reason	-0.0863764
-3.72471	reasons	-0.0863764
-4.01669	rebel	-0.0863764
-4.01669	rebuked	-0.0863763
-4.01669	receipt	-0.0863765
-4.01669	receive	-0.0863762
-3.72471	receives	-0.0863764
-4.01669	receivest	-0.0863764
-4.01669	receiving	-0.0863766
-3.8614	receivst	-0.0863765
-4.01669	recite	-0.0863764
-4.01669	reckon	-0.0863762
-4.01669	reckoned	-0.0863763
-4.01669	reckoning	-0.0863766
-4.01669	recompense	-0.0863764
-3.72471	record	-0.0863765
-4.01669	records	-0.0863764
-4.01669	recounting	-0.0863764
-4.01669	recured	-0.0863764
-3.57805	red	-0.0863766
-4.01669	redeem	-0.0863764
-4.01669	reeks	-0.0863764
-4.01669	reeleth	-0.0863763
-4.01669	refigured	-0.0863762
-4.01669	refined	-0.0863764
-4.01669	refuse	-0.0863765
-4.01669	refusest	-0.0863764
-4.01669	region	-0.0863764
-4.01669	register	-0.0863764
-4.01669	registers	-0.0863764
-3.57805	rehearse	-0.503668
-3.8614	reign	-0.160598
-4.01669	reigned	-0.0863764
-4.01669	reigns	-0.0863766
-4.01669	releasing	-0.0863764
-4.01669	relief	-0.0863764
-4.01669	religious	-0.0863766
-3.72471	remain	-0.378729
-4.01669	remains	-0.0863764
-3.8614	remedy	-0.160598
-3.8614	remember	-0.0863765
-3.57805	remembered	-0.121904
-3.8614	remembrance	-0.0863763
-4.01669	remote	-0.0863763
-3.8614	remove	-0.0863767
-3.57805	removed	-0.0863766
-4.01669	remover	-0.0863763
-3.8614	render	-0.0863765
-4.01669	renew	-0.0863766
-4.01669	renewed	-0.0863764
-4.01669	renewest	-0.0863764
-4.01669	rent	-0.0863764
-4.01669	rents	-0.0863764
-3.72471	repair	-0.0863766
-4.01669	repay	-0.0863764
-4.01669	repent	-0.0863766
-3.8614	replete	-0.160599
-3.72471	report	-0.378729
-4.01669	repose	-0.0863763
-4.01669	reproach	-0.0863765
-4.01669	reproving	-0.0863764
-4.01669	require	-0.0863764
-4.01669	resemble	-0.0863764
-4.01669	resembling	-0.0863765
-4.01669	reserve	-0.0863764
-4.01669	resort	-0.0863764
-3.57805	respect	-0.503668
-4.01669	respects	-0.0863764
-4.01669	respose	-0.0863764
-3.57805	rest	-0.237538
-4.01669	restful	-0.0863763
-4.01669	restore	-0.0863763
-4.01669	restored	-0.0863764
-4.01669	resty	-0.0863763
-4.01669	resurvey	-0.0863764
-4.01669	retention	-0.0863764
-3.72471	return	-0.109736
-4.01669	returned	-0.0863763
-4.01669	revenge	-0.0863765
-4.01669	revenues	-0.0863765
-4.01669	review	-0.0863764
-4.01669	reviewest	-0.0863766
-4.01669	revolt	-0.0863765
-4.01669	revolution	-0.0863765
-4.01669	rhetoric	-0.0863762
-3.38128	rhyme	-0.67976
-4.01669	rhymers	-0.0863764
-3.14356	rich	-0.155414
-4.01669	richer	-0.0863763
-3.8614	riches	-0.0863765
-4.01669	richly	-0.0863764
-4.01669	richproud	-0.0863764
-4.01669	rid	-0.0863767
-3.72471	ride	-0.378729
-4.01669	rider	-0.0863766
-3.14356	right	-0.100241
-4.01669	rightly	-0.0863765
-4.01669	rights	-0.0863765
-4.01669	rigour	-0.0863762
-4.01669	riot	-0.0863763
-4.01669	ripe	-0.0863762
-3.8614	riper	-0.0863765
-3.8614	rise	-0.0863762
-4.01669	rising	-0.0863765
-4.01669	rite	-0.0863764
-4.01669	robbed	-0.0863763
-3.8614	robbery	-0.0863765
-4.01669	robbing	-0.0863767
-4.01669	robe	-0.0863765
-3.8614	robs	-0.0863765
-4.01669	rocks	-0.0863764
-4.01669	rolling	-0.0863764
-4.01669	rondure	-0.0863764
-4.01669	roof	-0.0863763
-4.01669	room	-0.0863764
-3.8614	root	-0.0863764
-3.46861	rose	-0.109735
-3.46861	roses	-0.0863765
-4.01669	rosy	-0.0863765
-3.8614	rotten	-0.0863767
-4.01669	rough	-0.0863764
-3.57805	rude	-0.0863765
-4.01669	rudely	-0.0863764
-4.01669	rudst	-0.0863765
-4.01669	ruin	-0.0863767
-4.01669	ruinate	-0.0863764
-3.8614	ruined	-0.0863765
-4.01669	ruining	-0.0863764
-4.01669	ruminate	-0.0863764
-4.01669	run	-0.0863764
-4.01669	runs	-0.0863763
-4.01669	runst	-0.0863764
-4.01669	ruth	-0.0863765
-4.01669	sable	-0.0863764
-3.8614	sacred	-0.0863764
-3.46861	sad	-0.0863765
-4.01669	sadly	-0.0863764
-3.72471	said	-0.134423
-3.72471	sail	-0.0863765
-4.01669	saint	-0.0863763
-4.01669	saith	-0.0863764
-3.72471	sake	-0.188728
-4.01669	salutation	-0.0863763
-3.8614	salve	-0.0863765
-4.01669	salving	-0.0863766
-3.57805	same	-0.121904
-4.01669	sang	-0.0863764
-3.8614	sap	-0.0863764
-4.01669	satire	-0.0863763
-4.01669	saturn	-0.0863764
-4.01669	sauces	-0.0863765
-3.8614	saucy	-0.0863765
-4.01669	savage	-0.0863764
-3.8614	save	-0.0863764
-4.01669	saved	-0.0863767
-4.01669	savour	-0.0863764
-3.72471	saw	-0.114562
-2.85388	say	-0.180733
-4.01669	saying	-0.0863765
-3.46861	says	-0.0863765
-4.01669	scandal	-0.0863764
-4.01669	scanted	-0.0863766
-4.01669	scaped	-0.0863766
-4.01669	scarcely	-0.0863764
-4.01669	scarlet	-0.0863764
-3.46861	scope	-0.114562
-4.01669	score	-0.0863764
-3.8614	scorn	-0.0863769
-4.01669	scorned	-0.0863765
-3.72471	scythe	-0.121904
-3.72471	sea	-0.0863766
-4.01669	seal	-0.0863764
-4.01669	sealed	-0.0863766
-4.01669	seals	-0.0863762
-4.01669	seas	-0.0863764
-3.72471	seasons	-0.0863764
-3.8614	seat	-0.0863766
-3.57805	second	-0.0863764
-4.01669	seconds	-0.0863764
-4.01669	secret	-0.0863764
-2.85388	see	-0.172009
-3.46861	seeing	-0.114562
-3.57805	seek	-0.0863766
-4.01669	seeking	-0.0863766
-3.06051	seem	-0.0978987
-3.72471	seemed	-0.0863765
-3.72471	seeming	-0.0863766
-4.01669	seemly	-0.0863764
-3.8614	seems	-0.0863764
-3.38128	seen	-0.225688
-4.01669	sees	-0.0863765
-4.01669	seest	-0.0863762
-4.01669	seeting	-0.0863766
-3.8614	seldom	-0.0863765
-3.14356	self	-0.123475
-4.01669	selfdoing	-0.0863766
-4.01669	selfexample	-0.0863765
-4.01669	selfkilled	-0.0863764
-3.72471	selflove	-0.0863765
-4.01669	selfloving	-0.0863766
-4.01669	selfs	-0.0863766
-4.01669	selfsame	-0.0863764
-4.01669	selfsubstantial	-0.0863764
-4.01669	selfwilled	-0.0863764
-4.01669	sell	-0.0863764
-4.01669	selling	-0.0863763
-4.01669	semblance	-0.0863763
-4.01669	send	-0.0863765
-4.01669	sendst	-0.0863763
-3.57805	sense	-0.121904
-4.01669	senses	-0.0863762
-3.8614	sensual	-0.0863764
-4.01669	separable	-0.0863765
-4.01669	separation	-0.0863765
-4.01669	sepulchres	-0.0863766
-4.01669	sequent	-0.0863766
-4.01669	servant	-0.0863764
-4.01669	servants	-0.0863765
-4.01669	service	-0.0863763
-4.01669	services	-0.0863763
-3.8614	serving	-0.0863765
-4.01669	sessions	-0.0863765
-3.38128	set	-0.188728
-4.01669	sets	-0.0863764
-4.01669	settled	-0.0863764
-4.01669	several	-0.0863764
-3.57805	shade	-0.285269
-3.3086	shadow	-0.0863764
-3.57805	shadows	-0.0863764
-4.01669	shady	-0.0863764
-3.72471	shake	-0.0863764
-3.8614	shaken	-0.160598
-2.52432	shall	-0.173178
-4.01669	shallowest	-0.0863766
-3.38128	shalt	-0.100241
-3.14356	shame	-0.209566
-4.01669	shamed	-0.0863766
-4.01669	shamefully	-0.0863764
-3.8614	shames	-0.160599
-3.46861	shape	-0.0863765
-4.01669	shapes	-0.0863762
-4.01669	share	-0.0863765
-4.01669	sharp	-0.0863763
-4.01669	sharpened	-0.0863762
-4.01669	sharpst	-0.0863764
-2.73182	she	-0.0947259
-4.01669	sheaves	-0.0863764
-4.01669	sheds	-0.0863764
-4.01669	shifting	-0.0863763
-4.01669	shifts	-0.0863767
-3.57805	shine	-0.121904
-3.8614	shines	-0.0863767
-4.01669	shook	-0.0863765
-4.01669	shoot	-0.0863765
-4.01669	shop	-0.0863767
-3.8614	shore	-0.134423
-4.01669	shorn	-0.0863767
-3.72471	short	-0.121904
-4.01669	shortnumbered	-0.0863763
-2.69773	should	-0.120821
-3.8614	shouldst	-0.0863764
-2.99081	show	-0.28561
-3.8614	showers	-0.0863767
-4.01669	showing	-0.0863766
-3.8614	shown	-0.160598
-3.46861	shows	-0.109735
-4.01669	showst	-0.0863764
-4.01669	shun	-0.0863765
-3.38128	sick	-0.208404
-4.01669	sicken	-0.0863763
-4.01669	sickles	-0.0863764
-4.01669	sickly	-0.0863766
-4.01669	sickness	-0.0863764
-3.57805	side	-0.208403
-4.01669	sides	-0.0863762
-4.01669	siege	-0.0863765
-4.01669	sigh	-0.0863762
-4.01669	sighs	-0.0863764
-3.10005	sight	-0.724601
-3.8614	sightless	-0.0863765
-4.01669	signs	-0.0863765
-3.72471	silence	-0.0863764
-3.8614	silent	-0.0863765
-4.01669	silver	-0.0863764
-4.01669	silvered	-0.0863765
-3.72471	simple	-0.134423
-4.01669	simplicity	-0.0863764
-4.01669	simply	-0.0863765
-3.38128	sin	-0.0863764
-3.38128	since	-0.0920995
-3.72471	sinful	-0.0863765
-3.38128	sing	-0.31672
-3.57805	single	-0.0863764
-4.01669	singleness	-0.0863762
-3.8614	sings	-0.0863765
-4.01669	sinks	-0.0863766
-4.01669	sins	-0.0863764
-4.01669	sire	-0.0863764
-4.01669	siren	-0.0863766
-3.8614	sit	-0.160598
-4.01669	sits	-0.0863764
-4.01669	situation	-0.0863765
-3.24636	skill	-0.441658
-4.01669	sky	-0.0863764
-3.8614	slain	-0.160598
-3.8614	slander	-0.0863765
-4.01669	slandered	-0.0863765
-4.01669	slanderers	-0.0863766
-4.01669	slandering	-0.0863764
-4.01669	slanders	-0.0863766
-3.46861	slave	-0.109736
-4.01669	slavery	-0.0863767
-4.01669	slay	-0.0863764
-3.57805	sleep	-0.0863765
-4.01669	sleeping	-0.0863766
-4.01669	slept	-0.0863762
-4.01669	slide	-0.0863764
-3.8614	slight	-0.0863764
-3.57805	slow	-0.285269
-4.01669	slumbers	-0.0863763
-4.01669	sluttish	-0.0863766
-3.8614	small	-0.0863764
-3.57805	smell	-0.0863766
-4.01669	smells	-0.0863764
-4.01669	smiling	-0.0863764
-4.01669	smoke	-0.0863764
-4.01669	smother	-0.0863764
-4.01669	snow	-0.0863765
-2.29157	so	-0.149862
-4.01669	sober	-0.0863766
-4.01669	society	-0.0863764
-4.01669	soft	-0.0863766
-3.8614	soil	-0.0863764
-4.01669	sold	-0.0863764
-4.01669	sole	-0.0863766
-4.01669	solemn	-0.0863764
-2.74993	some	-0.131857
-3.8614	something	-0.0863765
-3.46861	sometime	-0.0863765
-4.01669	sometimes	-0.0863764
-3.72471	son	-0.134423
-3.57805	song	-0.285269
-4.01669	songs	-0.0863764
-3.72471	soon	-0.134423
-4.01669	sooner	-0.0863765
-3.46861	sorrow	-0.0863765
-3.8614	sorrows	-0.0863765
-4.01669	sorry	-0.0863766
-4.01669	sort	-0.0863764
-4.01669	sought	-0.0863764
-3.3086	soul	-0.100241
-3.57805	souls	-0.0863765
-3.8614	sound	-0.0863767
-4.01669	soundless	-0.0863764
-3.8614	sounds	-0.160598
-3.8614	sour	-0.0863767
-4.01669	sourest	-0.0863766
-3.8614	sourly	-0.0863765
-3.57805	sovereign	-0.0863764
-4.01669	space	-0.0863765
-4.01669	spacious	-0.0863764
-4.01669	sparkling	-0.0863766
-3.38128	speak	-0.106321
-3.57805	speaking	-0.121904
-4.01669	special	-0.0863764
-4.01669	specialblest	-0.0863764
-3.8614	speechless	-0.0863765
-3.72471	speed	-0.0863766
-3.46861	spend	-0.600579
-4.01669	spending	-0.0863765
-4.01669	spends	-0.0863766
-4.01669	spendst	-0.0863764
-3.38128	spent	-0.67976
-4.01669	spheres	-0.0863765
-4.01669	spies	-0.0863764
-3.14356	spirit	-0.100241
-3.8614	spirits	-0.0863765
-3.46861	spite	-0.27802
-4.01669	spites	-0.0863766
-4.01669	splendour	-0.0863767
-4.01669	spoil	-0.0863765
-4.01669	spoils	-0.0863766
-3.8614	sport	-0.160598
-4.01669	sportive	-0.0863765
-4.01669	spot	-0.0863762
-4.01669	spread	-0.0863764
-3.72471	spring	-0.285269
-4.01669	springs	-0.0863763
-3.8614	spur	-0.0863764
-4.01669	spurring	-0.0863763
-3.8614	stage	-0.0863767
-3.72471	stain	-0.0863766
-4.01669	stained	-0.0863764
-4.01669	staineth	-0.0863764
-4.01669	stamp	-0.0863765
-4.01669	stamped	-0.0863765
-3.3086	stand	-0.27535
-3.72471	stands	-0.0863764
-3.72471	star	-0.134423
-3.57805	stars	-0.114562
-4.01669	starved	-0.0863764
-3.10005	state	-0.422812
-4.01669	statues	-0.0863764
-4.01669	statute	-0.0863765
-3.19193	stay	-0.492811
-4.01669	stays	-0.0863767
-3.38128	steal	-0.106321
-4.01669	stealing	-0.0863765
-4.01669	steals	-0.0863765
-4.01669	stealth	-0.0863765
-3.72471	steel	-0.0863766
-4.01669	steeled	-0.0863766
-4.01669	steep	-0.0863764
-4.01669	steepup	-0.0863766
-4.01669	steepy	-0.0863767
-4.01669	stelled	-0.0863764
-4.01669	stern	-0.0863764
-4.01669	stewards	-0.0863765
-4.01669	stickst	-0.0863765
-2.5707	still	-0.230339
-4.01669	stirred	-0.0863766
-4.01669	stole	-0.0863766
-3.72471	stoln	-0.114562
-3.72471	stone	-0.0863766
-4.01669	stones	-0.0863765
-3.8614	stop	-0.0863764
-4.01669	stopped	-0.0863764
-4.01669	stops	-0.0863766
-3.19193	store	-0.492811
-3.8614	stores	-0.0863767
-4.01669	stormbeaten	-0.0863762
-4.01669	stormy	-0.0863764
-3.57805	story	-0.121904
-4.01669	stout	-0.0863764
-3.38128	straight	-0.106321
-4.01669	strained	-0.0863766
-4.01669	strains	-0.0863765
-3.38128	strange	-0.31672
-3.8614	strangely	-0.0863765
-4.01669	strangle	-0.0863764
-4.01669	straying	-0.0863763
-4.01669	streams	-0.0863765
-3.57805	strength	-0.0863764
-4.01669	strengthened	-0.0863765
-4.01669	strengths	-0.0863766
-4.01669	stretched	-0.0863764
-4.01669	strife	-0.0863764
-4.01669	strikes	-0.0863763
-4.01669	string	-0.0863763
-3.8614	strive	-0.0863769
-4.01669	striving	-0.0863763
-3.3086	strong	-0.101809
-3.8614	stronger	-0.0863767
-3.8614	strongly	-0.0863766
-4.01669	struck	-0.0863764
-4.01669	strumpeted	-0.0863764
-3.72471	style	-0.0863766
-4.01669	subdued	-0.0863764
-3.46861	subject	-0.114562
-3.8614	subjects	-0.0863764
-4.01669	suborned	-0.0863764
-4.01669	subscribes	-0.0863764
-4.01669	subsist	-0.0863764
-3.57805	substance	-0.0863764
-4.01669	subtleties	-0.0863764
-4.01669	succeeding	-0.0863763
-4.01669	succession	-0.0863764
-4.01669	successive	-0.0863766
-2.80927	such	-0.156443
-4.01669	sue	-0.0863765
-3.8614	suffer	-0.0863764
-4.01669	sufferance	-0.0863764
-4.01669	suffered	-0.0863762
-4.01669	suffers	-0.0863765
-4.01669	sufficed	-0.0863764
-4.01669	suffring	-0.0863767
-4.01669	suggest	-0.0863764
-4.01669	suit	-0.0863766
-4.01669	suited	-0.0863764
-3.8614	sullen	-0.0863765
-4.01669	sullied	-0.0863767
-3.57805	sum	-0.121904
-3.3086	summer	-0.0863764
-3.10005	summers	-0.0863764
-4.01669	summon	-0.0863762
-4.01669	sums	-0.0863766
-3.3086	sun	-0.101809
-4.01669	sunk	-0.0863762
-4.01669	sunken	-0.0863766
-3.8614	suns	-0.0863763
-4.01669	sunset	-0.0863764
-4.01669	suppose	-0.0863764
-3.8614	supposed	-0.0863765
-4.01669	supposing	-0.0863764
-4.01669	suppressed	-0.0863764
-3.72471	sure	-0.0863764
-4.01669	suretylike	-0.0863763
-4.01669	surfeit	-0.0863767
-4.01669	surly	-0.0863764
-4.01669	surmise	-0.0863764
-4.01669	surmount	-0.0863764
-3.8614	survey	-0.160598
-3.8614	survive	-0.0863765
-3.72471	suspect	-0.0863767
-4.01669	swallowed	-0.0863764
-4.01669	swartcomplexioned	-0.0863767
-3.8614	sway	-0.0863767
-4.01669	swayst	-0.0863764
-3.46861	swear	-0.106321
-4.01669	swearing	-0.0863764
-4.01669	swears	-0.0863766
-2.66612	sweet	-0.135561
-3.46861	sweetest	-0.0863764
-3.8614	sweetly	-0.0863765
-3.8614	sweetness	-0.0863767
-3.38128	sweets	-0.0863765
-4.01669	sweetseasoned	-0.0863764
-4.01669	sweetst	-0.0863764
-4.01669	swerving	-0.0863764
-3.46861	swift	-0.0863764
-4.01669	swiftfooted	-0.0863766
-4.01669	sword	-0.0863764
-4.01669	sworn	-0.0863765
-4.01669	sympathized	-0.0863764
-4.01669	t	-0.0863764
-4.01669	table	-0.0863765
-3.8614	tables	-0.0863764
-3.14356	take	-0.143118
-3.72471	taken	-0.378729
-4.01669	taker	-0.0863765
-3.8614	takes	-0.0863764
-4.01669	tall	-0.0863764
-4.01669	tallies	-0.0863766
-4.01669	tame	-0.0863763
-4.01669	tan	-0.0863764
-4.01669	tanned	-0.0863764
-4.01669	task	-0.0863764
-3.57805	taste	-0.121904
-3.8614	tattered	-0.0863765
-3.38128	taught	-0.109736
-3.72471	teach	-0.134423
-4.01669	teachest	-0.0863763
-4.01669	tear	-0.0863764
-3.57805	tears	-0.114562
-4.01669	teeming	-0.0863764
-4.01669	teeth	-0.0863763
-3.02426	tell	-0.328591
-4.01669	telling	-0.0863763
-4.01669	tells	-0.0863762
-4.01669	temperate	-0.0863764
-4.01669	tempests	-0.0863764
-3.8614	temptation	-0.0863765
-4.01669	tempteth	-0.0863767
-4.01669	tempting	-0.0863766
-3.3086	ten	-0.383667
-4.01669	tenants	-0.0863763
-3.72471	tend	-0.378729
-3.3086	tender	-0.0863765
-4.01669	tendered	-0.0863764
-4.01669	tenth	-0.0863763
-4.01669	tenure	-0.0863765
-4.01669	term	-0.0863765
-4.01669	termed	-0.0863765
-4.01669	terms	-0.0863764
-4.01669	testy	-0.0863765
-3.38128	th	-0.101809
-2.68164	than	-0.130192
-4.01669	thank	-0.0863762
-4.01669	thanks	-0.0863765
-1.94619	that	-0.245957
-4.01669	thats	-0.0863764
-1.86919	the	-0.156565
-2.22599	thee	-0.256049
-4.01669	theft	-0.0863762
-2.5707	their	-0.0951277
-3.8614	theirs	-0.0863765
-2.99081	them	-0.0863765
-4.01669	themes	-0.0863762
-3.38128	themselves	-0.0863765
-2.68164	then	-0.129418
-3.24636	thence	-0.103777
-2.95975	there	-0.225688
-3.8614	thereby	-0.0863767
-3.57805	therefore	-0.131162
-3.8614	therein	-0.0863764
-4.01669	thereof	-0.0863764
-4.01669	theres	-0.0863767
-3.02426	these	-0.0863765
-2.73182	they	-0.128952
-3.72471	thief	-0.121904
-3.8614	thievish	-0.0863765
-2.71444	thine	-0.276701
-3.3086	thing	-0.0863765
-3.10005	things	-0.0863764
-3.14356	think	-0.119065
-3.72471	thinking	-0.134423
-3.8614	thinks	-0.0863765
-4.01669	thinly	-0.0863764
-4.01669	third	-0.0863764
-2.40073	this	-0.127167
-4.01669	thither	-0.0863764
-3.72471	thorns	-0.134423
-2.80927	those	-0.131457
-2.15943	thou	-0.274253
-2.76883	though	-0.174587
-2.9036	thought	-0.179375
-2.95975	thoughts	-0.101809
-4.01669	thousand	-0.0863764
-4.01669	thrall	-0.0863764
-4.01669	thralled	-0.0863764
-3.46861	three	-0.0863765
-4.01669	threefold	-0.0863762
-4.01669	threescore	-0.0863765
-4.01669	threw	-0.0863764
-3.72471	thrice	-0.134423
-4.01669	thriftless	-0.0863766
-3.8614	thrive	-0.0863765
-4.01669	thrivers	-0.0863762
-4.01669	throned	-0.0863764
-3.38128	through	-0.109736
-4.01669	throw	-0.0863766
-4.01669	thrust	-0.0863764
-4.01669	thrusts	-0.0863766
-4.01669	thunder	-0.0863766
-2.99081	thus	-0.106321
-2.05826	thy	-0.218455
-4.01669	thyself	-0.0863766
-4.01669	tibey	-0.0863764
-4.01669	tickled	-0.0863764
-3.8614	tie	-0.0863765
-4.01669	tied	-0.0863764
-4.01669	tigers	-0.0863764
-3.19193	till	-0.096234
-4.01669	tillage	-0.0863765
-2.5707	time	-0.206989
-4.01669	timebettering	-0.0863767
-2.85388	times	-0.0918692
-4.01669	tincture	-0.0863765
-3.72471	tired	-0.134423
-4.01669	tires	-0.0863764
-3.14356	tis	-0.109736
-3.8614	title	-0.0863764
-4.01669	titles	-0.0863765
-1.73971	to	-0.285405
-3.72471	today	-0.0863765
-4.01669	together	-0.0863764
-3.57805	toil	-0.0863764
-4.01669	toiled	-0.0863764
-3.57805	told	-0.285269
-3.57805	tomb	-0.285269
-4.01669	tombed	-0.0863765
-4.01669	tombs	-0.0863765
-3.8614	tomorrow	-0.0863764
-3.24636	tongue	-0.333343
-3.46861	tongues	-0.114562
-3.72471	tonguetied	-0.0863765
-2.95975	too	-0.134523
-3.46861	took	-0.114562
-4.01669	top	-0.0863765
-4.01669	tops	-0.0863765
-3.8614	torment	-0.0863764
-4.01669	torn	-0.0863764
-4.01669	torture	-0.0863764
-4.01669	touch	-0.0863767
-4.01669	touched	-0.0863764
-3.57805	touches	-0.0863764
-4.01669	toward	-0.0863763
-3.8614	towards	-0.0863765
-4.01669	towers	-0.0863765
-4.01669	tract	-0.0863764
-4.01669	traffic	-0.0863765
-4.01669	transferred	-0.0863764
-4.01669	transfix	-0.0863762
-4.01669	transgression	-0.0863764
-4.01669	translate	-0.0863764
-4.01669	translated	-0.0863764
-4.01669	transport	-0.0863764
-4.01669	travail	-0.0863765
-3.8614	travel	-0.0863764
-4.01669	travelled	-0.0863767
-3.8614	travels	-0.0863764
-4.01669	treads	-0.0863767
-4.01669	treason	-0.0863764
-3.3086	treasure	-0.27535
-4.01669	trees	-0.0863765
-4.01669	trenches	-0.0863762
-3.8614	trespass	-0.0863765
-4.01669	tresses	-0.0863765
-4.01669	trial	-0.0863765
-4.01669	tribes	-0.0863764
-4.01669	trifle	-0.0863765
-4.01669	trifles	-0.0863764
-4.01669	trim	-0.0863764
-4.01669	trimmed	-0.0863762
-4.01669	tripping	-0.0863766
-3.72471	triumph	-0.0863764
-3.8614	triumphant	-0.0863764
-4.01669	trophies	-0.0863765
-4.01669	trouble	-0.0863764
-4.01669	truant	-0.0863763
-2.74993	true	-0.211372
-4.01669	truest	-0.0863764
-4.01669	truetelling	-0.0863764
-3.46861	truly	-0.0863764
-3.72471	trust	-0.237538
-2.831	truth	-0.187649
-3.8614	truths	-0.0863762
-4.01669	try	-0.0863762
-4.01669	tune	-0.0863764
-3.72471	turn	-0.134423
-3.8614	turned	-0.0863767
-3.72471	turns	-0.0863765
-3.72471	twain	-0.378729
-4.01669	twenty	-0.0863765
-3.8614	twice	-0.0863766
-4.01669	twilight	-0.0863765
-4.01669	twire	-0.0863765
-3.8614	twixt	-0.0863765
-3.19193	two	-0.101809
-4.01669	twofold	-0.0863766
-4.01669	tyrannous	-0.0863766
-4.01669	tyranny	-0.0863764
-3.8614	tyrant	-0.0863764
-3.8614	tyrants	-0.0863767
-4.01669	ugly	-0.0863764
-4.01669	unbless	-0.0863764
-4.01669	unbred	-0.0863764
-4.01669	uncertain	-0.0863764
-3.46861	under	-0.0863764
-4.01669	undivided	-0.0863765
-4.01669	uneared	-0.0863764
-4.01669	unfair	-0.0863764
-3.8614	unfathered	-0.0863767
-4.01669	unfolding	-0.0863762
-4.01669	unhappily	-0.0863766
-4.01669	unions	-0.0863764
-4.01669	universe	-0.0863765
-4.01669	unjust	-0.0863764
-3.72471	unkind	-0.0863764
-3.8614	unkindness	-0.0863765
-3.8614	unknown	-0.0863764
-4.01669	unlearned	-0.0863762
-3.72471	unless	-0.134423
-4.01669	unlettered	-0.0863764
-4.01669	unlooked	-0.0863765
-4.01669	unmoved	-0.0863765
-4.01669	unperfect	-0.0863764
-4.01669	unprovident	-0.0863764
-3.8614	unrespected	-0.0863767
-4.01669	unrest	-0.0863764
-4.01669	unseeing	-0.0863766
-3.8614	unseen	-0.0863769
-4.01669	unset	-0.0863764
-4.01669	unstained	-0.0863766
-4.01669	unswayed	-0.0863762
-4.01669	unswept	-0.0863766
-4.01669	untainted	-0.0863765
-4.01669	unthrift	-0.0863762
-4.01669	unthrifts	-0.0863767
-4.01669	unthrifty	-0.0863764
-4.01669	until	-0.0863764
-4.01669	unto	-0.0863762
-4.01669	untold	-0.0863764
-4.01669	untrimmed	-0.0863764
-3.8614	untrue	-0.160598
-4.01669	untutored	-0.0863763
-3.57805	unused	-0.0863764
-4.01669	unwooed	-0.0863764
-4.01669	unworthiness	-0.0863764
-2.95975	up	-0.104962
-4.01669	uphold	-0.0863764
-4.01669	uplocked	-0.0863765
-2.80927	upon	-0.229952
-4.01669	uprear	-0.0863764
-3.8614	urge	-0.0863767
-3.8614	us	-0.0863764
-3.10005	use	-0.269357
-3.72471	used	-0.0863767
-4.01669	user	-0.0863766
-4.01669	usest	-0.0863764
-4.01669	ushers	-0.0863762
-3.8614	usurer	-0.0863764
-4.01669	usury	-0.0863764
-4.01669	utmost	-0.0863766
-4.01669	uttering	-0.0863766
-4.01669	vacant	-0.0863764
-4.01669	vade	-0.0863766
-3.8614	vainly	-0.0863764
-4.01669	valleyfountain	-0.0863765
-3.8614	vanished	-0.0863764
-4.01669	vanishing	-0.0863765
-4.01669	vantage	-0.0863764
-4.01669	variation	-0.0863765
-4.01669	varying	-0.0863763
-3.8614	vassal	-0.0863765
-4.01669	vassalage	-0.0863764
-4.01669	vaunt	-0.0863762
-4.01669	veil	-0.0863765
-3.8614	veins	-0.0863767
-4.01669	vengeful	-0.0863765
-4.01669	verdict	-0.0863767
-4.01669	vermilion	-0.0863762
-3.38128	verse	-0.210065
-4.01669	verses	-0.0863766
-3.8614	very	-0.0863765
-3.8614	vex	-0.0863765
-4.01669	vexed	-0.0863765
-4.01669	vial	-0.0863765
-4.01669	vice	-0.0863762
-4.01669	vices	-0.0863766
-4.01669	victor	-0.0863764
-4.01669	victories	-0.0863764
-4.01669	victors	-0.0863765
-3.3086	view	-0.27535
-4.01669	viewest	-0.0863764
-3.72471	vile	-0.0863764
-4.01669	vilest	-0.0863766
-3.8614	violet	-0.0863765
-4.01669	virgin	-0.0863767
-3.3086	virtue	-0.0863765
-3.72471	virtuous	-0.0863765
-4.01669	visage	-0.0863765
-4.01669	vision	-0.0863765
-4.01669	voice	-0.0863765
-4.01669	voices	-0.0863766
-4.01669	votary	-0.0863765
-3.8614	vouchsafe	-0.0863767
-3.8614	vow	-0.0863762
-4.01669	vowed	-0.0863764
-4.01669	vowing	-0.0863765
-3.8614	vows	-0.0863762
-3.8614	vulgar	-0.0863764
-3.8614	wail	-0.0863765
-4.01669	wailing	-0.0863764
-3.8614	wait	-0.0863765
-4.01669	waiting	-0.0863766
-4.01669	wake	-0.0863766
-4.01669	wakened	-0.0863762
-4.01669	waking	-0.0863767
-4.01669	walk	-0.0863765
-3.8614	walks	-0.0863762
-3.8614	walls	-0.0863763
-4.01669	wandrest	-0.0863762
-4.01669	wandring	-0.0863764
-4.01669	wane	-0.0863766
-4.01669	waning	-0.0863766
-3.57805	want	-0.0863764
-3.8614	wanting	-0.0863767
-4.01669	wanton	-0.0863764
-4.01669	wantonly	-0.0863764
-4.01669	wantonness	-0.0863764
-3.38128	war	-0.0863765
-4.01669	ward	-0.0863764
-4.01669	wardrobe	-0.0863764
-4.01669	wards	-0.0863765
-4.01669	warm	-0.0863764
-4.01669	warmed	-0.0863764
-4.01669	warning	-0.0863763
-4.01669	warrantise	-0.0863765
-4.01669	warrior	-0.0863764
-4.01669	wars	-0.0863766
-4.01669	wary	-0.0863764
-2.87803	was	-0.0966035
-3.3086	waste	-0.106321
-4.01669	wasted	-0.0863766
-3.8614	wasteful	-0.0863764
-3.8614	wastes	-0.0863763
-3.8614	watch	-0.0863765
-4.01669	watching	-0.0863764
-4.01669	watchman	-0.0863764
-3.46861	water	-0.0863764
-4.01669	watery	-0.0863766
-4.01669	waves	-0.0863765
-3.57805	way	-0.503668
-2.99081	we	-0.0863764
-3.8614	weak	-0.0863766
-4.01669	weakens	-0.0863762
-4.01669	weakness	-0.0863764
-3.38128	wealth	-0.0863765
-3.72471	wear	-0.0863767
-3.57805	weary	-0.0863765
-3.72471	weed	-0.0863767
-3.57805	weeds	-0.121904
-4.01669	weeks	-0.0863764
-3.72471	weep	-0.0863767
-4.01669	weigh	-0.0863763
-4.01669	weighs	-0.0863765
-4.01669	weight	-0.0863762
-3.8614	welcome	-0.0863764
-4.01669	welfare	-0.0863765
-2.76883	well	-0.198996
-4.01669	wellcontented	-0.0863767
-4.01669	wellseeing	-0.0863766
-4.01669	welltuned	-0.0863764
-4.01669	went	-0.0863764
-2.85388	were	-0.116647
-4.01669	weret	-0.0863764
-3.72471	wert	-0.0863765
-3.72471	west	-0.134423
-4.01669	wet	-0.0863765
-2.47255	what	-0.171305
-3.8614	whateer	-0.0863765
-3.8614	whats	-0.0863765
-4.01669	whatsoever	-0.0863766
-2.50287	when	-0.221513
-3.72471	whence	-0.0863764
-2.69773	where	-0.216242
-3.72471	wherefore	-0.0863765
-3.57805	wherein	-0.114562
-3.8614	whereof	-0.0863765
-3.72471	whereon	-0.0863764
-4.01669	wherethrough	-0.0863762
-4.01669	whereto	-0.0863764
-4.01669	whereupon	-0.0863764
-4.01669	wherever	-0.0863765
-4.01669	wherewith	-0.0863764
-3.57805	whether	-0.0863765
-2.49252	which	-0.151966
-3.72471	while	-0.0863764
-3.72471	whilst	-0.0863765
-4.01669	whit	-0.0863764
-3.38128	white	-0.188728
-3.10005	who	-0.0962341
-4.01669	whoeer	-0.0863766
-4.01669	whoever	-0.0863767
-4.01669	whole	-0.0863764
-3.19193	whom	-0.097899
-4.01669	whos	-0.0863766
-3.02426	whose	-0.0863764
-3.02426	why	-0.17969
-3.46861	wide	-0.109735
-3.8614	widow	-0.0863762
-4.01669	widowed	-0.0863764
-4.01669	widows	-0.0863767
-4.01669	wife	-0.0863764
-4.01669	wights	-0.0863764
-4.01669	wild	-0.0863765
-4.01669	wilful	-0.0863766
-4.01669	wilfully	-0.0863766
-4.01669	wilfulness	-0.0863764
-4.01669	wilfulslow	-0.0863764
-2.5469	will	-0.197904
-3.8614	willing	-0.0863765
-4.01669	willingly	-0.0863764
-3.8614	wills	-0.0863762
-3.46861	wilt	-0.170665
-3.72471	win	-0.0863766
-3.8614	wind	-0.160598
-3.72471	windows	-0.0863765
-3.8614	winds	-0.0863767
-4.01669	windy	-0.0863767
-4.01669	wing	-0.0863764
-4.01669	winged	-0.0863766
-3.8614	wink	-0.0863764
-3.57805	winter	-0.0863765
-3.46861	winters	-0.0863765
-3.8614	wires	-0.0863765
-4.01669	wiry	-0.0863764
-4.01669	wisdom	-0.0863763
-3.8614	wise	-0.0863765
-3.46861	wish	-0.114562
-4.01669	wished	-0.0863764
-4.01669	wishing	-0.0863764
-3.38128	wit	-0.31672
-1.98571	with	-0.239518
-4.01669	withal	-0.0863762
-4.01669	withering	-0.0863763
-3.3086	within	-0.114562
-3.57805	without	-0.0863765
-3.72471	witness	-0.0863764
-3.8614	wits	-0.0863763
-3.10005	woe	-0.422812
-4.01669	woeful	-0.0863763
-4.01669	woes	-0.0863765
-4.01669	wolf	-0.0863764
-4.01669	woman	-0.0863764
-3.8614	womans	-0.0863765
-3.8614	womb	-0.0863767
-4.01669	wombs	-0.0863764
-3.72471	womens	-0.0863764
-4.01669	won	-0.0863764
-3.72471	wonder	-0.0863765
-4.01669	wondring	-0.0863765
-3.8614	wondrous	-0.0863764
-4.01669	wont	-0.0863763
-4.01669	woo	-0.0863763
-3.8614	wood	-0.0863764
-4.01669	woods	-0.0863764
-4.01669	wooed	-0.0863765
-4.01669	wooing	-0.0863762
-4.01669	woos	-0.0863763
-3.8614	word	-0.0863767
-3.14356	words	-0.100241
-3.72471	work	-0.0863765
-4.01669	workings	-0.0863765
-3.57805	works	-0.0863765
-3.24636	world	-0.103067
-3.8614	worlds	-0.0863765
-4.01669	worldwithoutend	-0.0863766
-3.57805	worms	-0.0863765
-3.46861	worse	-0.0863764
-4.01669	worser	-0.0863764
-4.01669	worship	-0.0863766
-3.72471	worst	-0.127225
-3.10005	worth	-0.121341
-4.01669	worthier	-0.0863764
-4.01669	worthiness	-0.0863764
-3.8614	worthless	-0.0863765
-3.8614	worths	-0.0863765
-3.46861	worthy	-0.0863765
-2.85388	would	-0.132091
-3.8614	wouldst	-0.0863764
-3.57805	wound	-0.0863764
-4.01669	wounded	-0.0863766
-4.01669	wrack	-0.0863764
-4.01669	wrackful	-0.0863764
-4.01669	wrecked	-0.0863765
-3.8614	wretch	-0.0863766
-4.01669	wretchcd	-0.0863765
-3.72471	wretched	-0.0863765
-4.01669	wretchs	-0.0863766
-4.01669	wrinkle	-0.0863764
-3.57805	wrinkles	-0.0863764
-3.46861	writ	-0.109736
-3.19193	write	-0.209566
-4.01669	writers	-0.0863763
-4.01669	writes	-0.0863765
-4.01669	written	-0.0863764
-3.46861	wrong	-0.38218
-4.01669	wrongfully	-0.0863764
-3.8614	wrongs	-0.0863767
-4.01669	wronk	-0.0863764
-3.8614	wrought	-0.0863767
-3.8614	ye	-0.160598
-4.01669	yea	-0.0863764
-3.46861	year	-0.114562
-3.8614	years	-0.0863765
-3.8614	yellow	-0.0863764
-4.01669	yellowed	-0.0863765
-2.831	yet	-0.122477
-4.01669	yhave	-0.0863764
-3.8614	yield	-0.0863765
-4.01669	yore	-0.0863764
-2.35373	you	-0.211116
-3.57805	young	-0.121904
-4.01669	youngly	-0.0863764
-2.38449	your	-0.182037
-3.46861	yours	-0.0863765
-3.06051	youth	-0.26675
-3.8614	youthful	-0.0863765
-4.01669	youths	-0.0863764
-4.01669	zealous	-0.0863764

\2-grams:
-0.876384	<s>	</s>
-2.13224	<s>	a	-0.0681914
-3.81117	<s>	above	-0.0138338
-3.85198	<s>	accuse	-0.0138339
-3.86619	<s>	admit	-0.0138341
-3.83511	<s>	advantage	-0.0138338
-3.20208	<s>	after	-0.0138338
-2.41239	<s>	against	-0.314864
-2.74551	<s>	ah	-0.0138338
-3.83511	<s>	alack	-0.0138338
-3.24554	<s>	alas	-0.0138341
-2.35908	<s>	all	-0.235683
-2.74152	<s>	although	-0.0138338
-3.65613	<s>	am	-0.0138338
-3.83511	<s>	among	-0.0138338
-3.60979	<s>	an	-0.0138338
-1.00116	<s>	and	-0.322102
-3.86619	<s>	angry	-0.0138337
-3.85198	<s>	anon	-0.0138337
-3.708	<s>	another	-0.0138338
-3.86619	<s>	applying	-0.0138337
-2.84163	<s>	are	-0.0138338
-3.55482	<s>	art	-0.0138338
-1.78269	<s>	as	-0.254166
-3.86619	<s>	askance	-0.0138337
-2.71088	<s>	at	-0.0138339
-3.85198	<s>	attending	-0.0138339
-3.86619	<s>	authorizing	-0.0138337
-3.86619	<s>	awakes	-0.0138338
-3.24554	<s>	ay	-0.0138339
-3.81117	<s>	bare	-0.0138338
-2.3996	<s>	be	-0.0138338
-3.69001	<s>	bear	-0.0138338
-3.24209	<s>	bearing	-0.0138338
-3.86619	<s>	beated	-0.0138337
-3.708	<s>	beauteous	-0.0138338
-3.10494	<s>	beauty	-0.0138338
-3.60979	<s>	beautys	-0.0138337
-3.24209	<s>	because	-0.0138338
-2.97173	<s>	before	-0.0138338
-3.86619	<s>	beggared	-0.0138335
-2.80103	<s>	being	-0.314864
-3.86619	<s>	beshrew	-0.0138337
-3.59538	<s>	better	-0.0138338
-3.86619	<s>	betwixt	-0.0138338
-3.86619	<s>	beyond	-0.0138334
-3.74638	<s>	blessed	-0.0138338
-3.76692	<s>	book	-0.0138338
-3.85198	<s>	borne	-0.0138339
-2.96504	<s>	both	-0.0138338
-3.85198	<s>	bound	-0.013834
-3.86619	<s>	breathed	-0.0138336
-3.76692	<s>	bring	-0.0138338
-1.43845	<s>	but	-0.319771
-3.86619	<s>	buy	-0.0138341
-2.22312	<s>	by	-0.0138338
-3.85198	<s>	called	-0.0138336
-3.78848	<s>	calls	-0.0138337
-3.24209	<s>	came	-0.0138338
-2.9179	<s>	can	-0.0138338
-3.708	<s>	cannot	-0.0138338
-3.78848	<s>	canst	-0.0138336
-3.86619	<s>	cheered	-0.0138337
-3.86619	<s>	chiding	-0.0138337
-3.81117	<s>	clouds	-0.0138338
-3.18522	<s>	come	-0.0138338
-3.85198	<s>	comes	-0.0138335
-3.86619	<s>	commanded	-0.0138335
-3.86619	<s>	commit	-0.0138338
-3.76692	<s>	compare	-0.0138338
-3.86619	<s>	compared	-0.0138336
-3.86619	<s>	consumed	-0.0138336
-3.86619	<s>	coral	-0.0138336
-3.708	<s>	could	-0.0138338
-3.85198	<s>	counting	-0.0138339
-3.86619	<s>	crawls	-0.0138338
-3.86619	<s>	creating	-0.0138337
-3.86619	<s>	creep	-0.013834
-3.85198	<s>	cries	-0.0138336
-3.85198	<s>	crooked	-0.0138337
-3.86619	<s>	crowning	-0.013834
-3.85198	<s>	cupid	-0.013834
-3.86619	<s>	darkening	-0.0138337
-3.59538	<s>	dear	-0.0138338
-3.76692	<s>	deaths	-0.0138338
-3.85198	<s>	delights	-0.0138336
-3.86619	<s>	describe	-0.0138341
-3.86619	<s>	deserves	-0.013834
-3.69001	<s>	desire	-0.0138338
-3.86619	<s>	desiring	-0.0138339
-3.76692	<s>	despite	-0.013834
-3.86619	<s>	devouring	-0.0138338
-3.20784	<s>	die	-0.0138338
-3.86619	<s>	disdains	-0.013834
-3.86619	<s>	dissuade	-0.0138336
-3.83511	<s>	distilled	-0.0138338
-3.86619	<s>	divert	-0.0138336
-2.7396	<s>	do	-0.314863
-3.85198	<s>	doing	-0.0138336
-2.98196	<s>	dost	-0.490955
-2.55941	<s>	doth	-0.0138338
-3.85198	<s>	doubting	-0.0138338
-3.83511	<s>	drawn	-0.0138338
-3.85198	<s>	drink	-0.0138338
-3.86619	<s>	drugs	-0.0138341
-3.86619	<s>	dulling	-0.0138338
-3.83511	<s>	duty	-0.0138338
-3.18522	<s>	each	-0.0138338
-3.83511	<s>	eat	-0.0138338
-3.85198	<s>	either	-0.0138336
-3.86619	<s>	enjoyed	-0.0138335
-3.86619	<s>	entitled	-0.013834
-3.22562	<s>	ere	-0.0138338
-3.76692	<s>	eternal	-0.0138338
-2.40777	<s>	even	-0.110744
-3.86619	<s>	exceeded	-0.0138335
-3.74638	<s>	excuse	-0.0138338
-3.86619	<s>	excusing	-0.0138337
-2.92089	<s>	fair	-99
-3.86619	<s>	fairing	-0.013834
-3.86619	<s>	farewell	-0.0138338
-3.86619	<s>	featured	-0.0138337
-3.83511	<s>	feeding	-0.0138338
-3.85198	<s>	feeds	-0.0138334
-3.86619	<s>	feedst	-0.0138337
-3.65613	<s>	find	-0.0138338
-3.24554	<s>	finding	-0.0138338
-3.83511	<s>	flatter	-0.0138336
-1.52293	<s>	for	-0.308955
-3.81117	<s>	forgot	-0.0138338
-2.22613	<s>	from	-0.0138336
-3.19077	<s>	full	-0.0138338
-3.76692	<s>	gainst	-0.0138338
-3.64013	<s>	gentle	-0.0138338
-3.24554	<s>	gilding	-0.0138335
-2.71647	<s>	give	-0.0138338
-3.85198	<s>	giving	-0.013834
-3.86619	<s>	gored	-0.0138338
-3.85198	<s>	grant	-0.0138338
-3.72677	<s>	great	-0.0138338
-3.83511	<s>	growing	-0.0138338
-3.81117	<s>	grows	-0.0138337
-3.16899	<s>	had	-0.0138338
-3.83511	<s>	hang	-0.0138338
-3.83511	<s>	haply	-0.0138338
-3.67274	<s>	happy	-0.0138338
-3.86619	<s>	harsh	-0.0138341
-3.69001	<s>	hast	-0.0138338
-3.62469	<s>	hate	-0.0138338
-2.61204	<s>	hath	-0.0138338
-2.60186	<s>	have	-0.0138338
-2.55161	<s>	he	-0.0138337
-3.86619	<s>	hearing	-0.0138337
-3.78848	<s>	hence	-0.0138338
-2.7767	<s>	her	-0.0138338
-3.86619	<s>	herein	-0.0138341
-3.86619	<s>	hers	-0.0138335
-3.86619	<s>	hiding	-0.0138337
-3.09587	<s>	him	-0.0138338
-2.82689	<s>	his	-0.0138337
-3.78848	<s>	holds	-0.0138338
-2.07684	<s>	how	-0.432962
-3.85198	<s>	hung	-0.0138338
-1.79871	<s>	i	-0.435908
-1.84957	<s>	if	-0.353781
-1.79646	<s>	in	-0.0930155
-3.86619	<s>	incapable	-0.0138335
-3.86619	<s>	incertainties	-0.0138334
-3.86619	<s>	increasing	-0.0138341
-3.85198	<s>	injurious	-0.0138337
-3.86619	<s>	intend	-0.0138339
-2.33586	<s>	is	-0.168736
-3.85198	<s>	ist	-0.0138336
-2.55551	<s>	it	-0.314864
-3.86619	<s>	join	-0.0138336
-3.81117	<s>	just	-0.0138338
-3.23171	<s>	kill	-99
-3.72677	<s>	kind	-0.0138338
-3.86619	<s>	kissing	-0.0138336
-3.23789	<s>	knowing	-0.0138338
-3.81117	<s>	laid	-0.013834
-3.85198	<s>	lascivious	-0.0138336
-3.86619	<s>	lean	-0.0138341
-3.86619	<s>	leaving	-0.0138342
-3.86619	<s>	leese	-0.0138335
-2.6581	<s>	lest	-0.0138338
-2.40685	<s>	let	-0.314864
-3.86619	<s>	lifts	-0.0138339
-2.49744	<s>	like	-0.138772
-3.86619	<s>	lilies	-0.0138337
-3.0113	<s>	lo	-0.0138337
-2.64571	<s>	look	-0.791987
-3.24209	<s>	looking	-0.0138333
-3.86619	<s>	lord	-0.0138335
-3.74638	<s>	lose	-0.0138338
-2.74357	<s>	love	-0.615894
-2.94557	<s>	loves	-0.0138337
-3.708	<s>	loving	-0.0138337
-3.22562	<s>	mad	-0.0138338
-3.16372	<s>	made	-0.0138338
-2.62855	<s>	make	-0.0138338
-3.22562	<s>	makes	-0.0138337
-2.57939	<s>	making	-0.159962
-3.23789	<s>	mark	-99
-2.95196	<s>	may	-0.0138337
-2.8809	<s>	me	-0.0138338
-3.81117	<s>	methinks	-0.0138338
-3.50604	<s>	might	-0.0138339
-2.38536	<s>	mine	-0.411776
-2.6737	<s>	more	-0.235682
-3.14323	<s>	most	-0.0138338
-3.67274	<s>	much	-0.0138338
-3.76692	<s>	music	-0.0138338
-1.85061	<s>	my	-0.314864
-3.86619	<s>	naming	-0.0138337
-3.86619	<s>	nativity	-0.0138341
-3.76692	<s>	natures	-0.0138338
-3.24554	<s>	nay	-99
-3.78848	<s>	needs	-0.0138338
-3.85198	<s>	neither	-0.0138339
-3.65613	<s>	never	-0.0138338
-2.15169	<s>	no	-0.13034
-3.65613	<s>	none	-0.0138338
-2.01302	<s>	nor	-0.093015
-2.34294	<s>	not	-0.0138337
-3.60979	<s>	nothing	-0.0138338
-2.43632	<s>	now	-0.0138338
-1.72436	<s>	o	-0.254568
-3.81117	<s>	oaths	-0.0138334
-3.76692	<s>	oer	-0.0138338
-3.86619	<s>	oercharged	-0.0138336
-1.99032	<s>	of	-0.110744
-2.56466	<s>	on	-0.0138338
-2.70355	<s>	one	-0.0138338
-3.76692	<s>	only	-0.0138338
-1.8097	<s>	or	-0.251195
-3.64013	<s>	others	-0.0138338
-3.16899	<s>	our	-0.0138338
-3.22562	<s>	painting	-0.0138337
-2.99244	<s>	past	-0.490954
-3.86619	<s>	perforce	-0.013834
-3.86619	<s>	pitiful	-0.0138341
-2.99957	<s>	pity	-0.490955
-3.86619	<s>	plods	-0.0138341
-3.81117	<s>	pluck	-0.0138338
-3.86619	<s>	pointing	-0.0138338
-3.86619	<s>	points	-0.0138335
-3.65613	<s>	poor	-0.0138338
-3.85198	<s>	possessing	-0.013834
-3.85198	<s>	potions	-0.0138339
-3.85198	<s>	praising	-0.013834
-3.86619	<s>	presents	-0.0138337
-3.86619	<s>	presume	-0.0138339
-3.86619	<s>	prison	-0.0138338
-3.86619	<s>	profitless	-0.0138336
-3.86619	<s>	proving	-0.0138341
-3.86619	<s>	receiving	-0.0138337
-3.24554	<s>	resembling	-0.0138334
-3.24554	<s>	reserve	-0.013834
-3.23789	<s>	return	-0.0138334
-3.86619	<s>	revenge	-0.0138337
-3.86619	<s>	richer	-0.0138341
-3.85198	<s>	rise	-0.0138337
-3.86619	<s>	robbed	-0.013834
-3.86619	<s>	robbing	-0.0138335
-3.85198	<s>	root	-0.0138339
-3.22562	<s>	roses	-0.0138338
-3.86619	<s>	rough	-0.0138336
-3.86619	<s>	ruin	-0.0138334
-3.85198	<s>	sap	-0.0138337
-3.86619	<s>	savage	-0.0138336
-2.58444	<s>	save	-0.381812
-3.55482	<s>	say	-0.0138337
-3.86619	<s>	seeking	-0.0138337
-3.85198	<s>	seems	-0.0138339
-3.69001	<s>	self	-0.0138338
-3.85198	<s>	serving	-0.0138338
-3.24554	<s>	sets	-0.0138337
-2.38361	<s>	shall	-0.0138338
-2.93305	<s>	she	-0.0138338
-3.86619	<s>	shifts	-0.0138335
-3.62469	<s>	show	-0.0138338
-3.86619	<s>	showing	-0.0138338
-3.86619	<s>	simply	-0.0138336
-3.76692	<s>	sin	-0.0138338
-2.23037	<s>	since	-0.0138337
-3.76692	<s>	sing	-0.0138338
-3.85198	<s>	sings	-0.0138336
-3.86619	<s>	sinks	-0.0138337
-3.86619	<s>	slandering	-0.0138336
-1.71232	<s>	so	-0.455483
-2.55547	<s>	some	-0.557901
-3.22562	<s>	sometime	-0.0138338
-3.21961	<s>	speak	-99
-3.81117	<s>	speaking	-0.0138334
-3.86619	<s>	spending	-0.0138336
-3.86619	<s>	spendst	-0.0138338
-3.76692	<s>	steal	-0.0138338
-3.24554	<s>	stealing	-0.0138334
-3.06975	<s>	still	-0.0138338
-3.86619	<s>	stirred	-0.0138335
-3.76692	<s>	straight	-0.0138338
-3.86619	<s>	strikes	-0.013834
-2.71088	<s>	such	-0.0138338
-3.86619	<s>	suffring	-0.0138338
-3.85198	<s>	suns	-0.0138339
-3.85198	<s>	supposed	-0.0138337
-3.83511	<s>	suspect	-0.0138338
-3.78848	<s>	swear	-0.0138338
-2.79426	<s>	sweet	-0.0138338
-3.76692	<s>	sweets	-0.0138337
-2.98196	<s>	take	-0.490955
-3.86619	<s>	tan	-0.0138336
-3.64013	<s>	tell	-0.0138338
-3.86619	<s>	tempteth	-0.0138338
-3.74638	<s>	ten	-0.0138338
-2.84911	<s>	th	-0.0138337
-2.27957	<s>	than	-0.0863843
-1.45972	<s>	that	-0.341848
-3.86619	<s>	thats	-0.0138338
-1.50472	<s>	the	-0.0906739
-3.11027	<s>	thee	-0.0138338
-3.37721	<s>	their	-0.0138338
-3.85198	<s>	theirs	-0.013834
-1.87365	<s>	then	-0.152136
-3.72677	<s>	thence	-0.0138338
-3.16899	<s>	there	-0.0138336
-2.51948	<s>	therefore	-0.138772
-2.72593	<s>	these	-0.0138337
-2.39687	<s>	they	-0.0138338
-2.80103	<s>	thine	-0.314864
-3.69001	<s>	think	-0.0138338
-2.46477	<s>	this	-0.0138338
-2.55937	<s>	those	-0.0138338
-1.97234	<s>	thou	-0.332592
-2.39867	<s>	though	-0.110744
-2.99957	<s>	three	-0.0138338
-3.76692	<s>	through	-0.0138338
-2.50774	<s>	thus	-0.138773
-1.90375	<s>	thy	-0.0960205
-3.86619	<s>	tibey	-0.0138337
-2.64731	<s>	till	-0.0138338
-3.37721	<s>	time	-0.0138338
-3.55482	<s>	times	-0.0138338
-3.23789	<s>	tired	-99
-2.98196	<s>	tis	-0.0138338
-1.47601	<s>	to	-0.224687
-3.24209	<s>	tomorrow	-0.0138338
-3.60979	<s>	too	-0.0138338
-3.85198	<s>	towards	-0.0138336
-3.83511	<s>	triumph	-0.0138337
-3.5421	<s>	truth	-0.0138338
-3.708	<s>	two	-0.0138338
-3.22562	<s>	under	-0.0138338
-3.86619	<s>	unlearned	-0.013834
-2.8568	<s>	unless	-0.0138339
-3.24554	<s>	unlooked	-0.0138338
-3.86619	<s>	unmoved	-0.0138336
-3.86619	<s>	unthrifty	-0.0138341
-3.86619	<s>	until	-0.0138341
-2.55937	<s>	upon	-0.557902
-3.67274	<s>	use	-0.0138338
-3.86619	<s>	uttering	-0.0138337
-3.86619	<s>	vaunt	-0.013834
-3.81117	<s>	want	-0.0138338
-2.81963	<s>	was	-0.314863
-3.62469	<s>	we	-0.0138338
-3.81117	<s>	weary	-0.0138338
-3.81117	<s>	weeds	-0.0138337
-3.86619	<s>	weighs	-0.0138339
-2.81726	<s>	were	-0.314864
-3.86619	<s>	weret	-0.0138336
-2.23655	<s>	what	-0.0807805
-3.85198	<s>	whateer	-0.013834
-3.24209	<s>	whats	-0.0138337
-1.63375	<s>	when	-0.407981
-3.83511	<s>	whence	-0.0138337
-2.35334	<s>	where	-0.013834
-3.23171	<s>	wherein	-0.0138337
-3.83511	<s>	whereon	-0.0138336
-3.0113	<s>	whereto	-0.0138338
-3.81117	<s>	whether	-0.0138338
-1.71698	<s>	which	-0.167418
-2.8568	<s>	while	-0.0138338
-2.37327	<s>	whilst	-0.210128
-2.1461	<s>	who	-0.0649863
-3.86619	<s>	whoeer	-0.0138337
-3.86619	<s>	whoever	-0.0138334
-3.708	<s>	whom	-0.0138338
-2.64097	<s>	whose	-0.0138338
-2.3258	<s>	why	-0.189925
-2.77455	<s>	will	-0.0138338
-3.78848	<s>	wilt	-0.0138337
-3.86619	<s>	wishing	-0.0138338
-2.08687	<s>	with	-0.0649862
-2.73757	<s>	within	-0.235682
-2.74351	<s>	without	-0.235682
-3.86619	<s>	wooing	-0.0138341
-3.78848	<s>	worthy	-0.0138338
-3.81117	<s>	wound	-0.0138338
-3.83511	<s>	wretched	-0.0138337
-2.09527	<s>	yet	-0.273471
-2.51243	<s>	you	-0.159962
-2.51714	<s>	your	-0.159962
-2.89478	a	babe	-0.0929959
-2.92001	a	backward	-0.0929964
-2.89478	a	bastard	-0.0929959
-2.87512	a	bath	-0.0929963
-2.2768	a	be	-0.0929956
-2.78829	a	beauteous	-0.0929961
-2.56076	a	beauty	-0.0929959
-2.92001	a	beggar	-0.0929958
-2.32075	a	better	-0.0929965
-2.92001	a	bliss	-0.0929964
-2.85631	a	brand	-0.0929961
-2.85631	a	canker	-0.0929961
-2.90852	a	careful	-0.092996
-2.92001	a	cheer	-0.0929965
-2.92001	a	closet	-0.0929963
-2.82097	a	cold	-0.0929961
-2.87512	a	common	-0.092996
-2.89478	a	confined	-0.0929959
-2.92001	a	conquered	-0.0929963
-2.92001	a	cool	-0.0929961
-2.92001	a	counterpart	-0.0929963
-2.92001	a	couplement	-0.0929962
-2.90852	a	crow	-0.0929963
-2.90852	a	curse	-0.092996
-2.85631	a	date	-0.0929966
-2.90852	a	dateless	-0.0929964
-2.90852	a	dearer	-0.0929959
-2.7295	a	death	-0.0929963
-2.90852	a	deceived	-0.092996
-2.92001	a	decrepit	-0.0929959
-2.92001	a	devil	-0.0929965
-2.90852	a	dial	-0.0929964
-2.90852	a	double	-0.0929964
-2.40461	a	dream	-0.092996
-2.92001	a	dye	-0.0929965
-2.32615	a	face	-0.0138337
-2.66569	a	false	-0.0929962
-2.92001	a	famine	-0.0929959
-2.74347	a	far	-0.092996
-2.90852	a	father	-0.0929959
-2.92001	a	fee	-0.0929965
-2.90852	a	fever	-0.092996
-2.90852	a	fiend	-0.0929963
-2.85631	a	flower	-0.0929963
-2.89478	a	fool	-0.0929961
-2.77283	a	form	-0.0929963
-2.89478	a	former	-0.092996
-2.78829	a	friend	-0.0929962
-2.89478	a	frown	-0.0929962
-2.92001	a	gainer	-0.0929962
-2.89478	a	gilded	-0.0929963
-2.92001	a	glorious	-0.0929959
-2.90852	a	god	-0.092996
-2.90852	a	goddess	-0.0929959
-2.87512	a	greater	-0.0929962
-2.87512	a	groan	-0.0929966
-2.7579	a	happy	-0.0929961
-2.90852	a	healthful	-0.0929961
-2.83828	a	hell	-0.0929961
-2.87512	a	holy	-0.0929963
-2.92001	a	house	-0.0929959
-2.87512	a	jewel	-0.092996
-2.90852	a	journey	-0.092996
-2.37192	a	joy	-0.0929963
-2.36593	a	kind	-0.0138338
-2.90852	a	king	-0.0929958
-2.92001	a	lamb	-0.0929959
-2.89478	a	lawful	-0.0929963
-2.92001	a	league	-0.0929956
-2.87512	a	lease	-0.0929956
-2.92001	a	limit	-0.0929958
-2.92001	a	liquid	-0.0929962
-2.90852	a	little	-0.092996
-2.83828	a	living	-0.0929962
-2.77283	a	look	-0.0929962
-2.82097	a	loss	-0.0929959
-2.92001	a	maid	-0.0929962
-2.92001	a	makeless	-0.0929962
-1.9579	a	man	-0.0929965
-2.90852	a	mansion	-0.0929962
-2.90852	a	map	-0.0929962
-2.92001	a	mightier	-0.0929959
-2.92001	a	miser	-0.0929962
-2.92001	a	modern	-0.0929959
-2.39041	a	mortal	-0.0929966
